digraph Tree {
node [shape=box, style="filled, rounded", color="black", fontname="helvetica"] ;
edge [fontname="helvetica"] ;
0 [label="Viscera Weight <= 4.089\ngini = 0.665\nsamples = 3893\nvalue = [1225, 1233, 1435]\nclass = M", fillcolor="#f5f0fd"] ;
1 [label="Age <= 8.5\ngini = 0.536\nsamples = 1601\nvalue = [250, 1002, 349]\nclass = I", fillcolor="#98f1bd"] ;
0 -> 1 [labeldistance=2.5, labelangle=45, headlabel="True"] ;
2 [label="Viscera Weight <= 2.644\ngini = 0.368\nsamples = 1034\nvalue = [75, 804, 155]\nclass = I", fillcolor="#6deca2"] ;
1 -> 2 ;
3 [label="Age <= 6.5\ngini = 0.281\nsamples = 750\nvalue = [31, 629, 90]\nclass = I", fillcolor="#5dea98"] ;
2 -> 3 ;
4 [label="Length <= 0.975\ngini = 0.209\nsamples = 380\nvalue = [9, 336, 35]\nclass = I", fillcolor="#52e891"] ;
3 -> 4 ;
5 [label="Weight <= 9.022\ngini = 0.237\nsamples = 322\nvalue = [9, 279, 34]\nclass = I", fillcolor="#57e994"] ;
4 -> 5 ;
6 [label="Viscera Weight <= 1.907\ngini = 0.23\nsamples = 319\nvalue = [9, 278, 32]\nclass = I", fillcolor="#55e993"] ;
5 -> 6 ;
7 [label="Shucked Weight <= 2.573\ngini = 0.225\nsamples = 318\nvalue = [8, 278, 32]\nclass = I", fillcolor="#55e993"] ;
6 -> 7 ;
8 [label="Weight <= 6.123\ngini = 0.239\nsamples = 265\nvalue = [5, 229, 31]\nclass = I", fillcolor="#57e994"] ;
7 -> 8 ;
9 [label="Weight <= 5.734\ngini = 0.219\nsamples = 261\nvalue = [5, 229, 27]\nclass = I", fillcolor="#54e992"] ;
8 -> 9 ;
10 [label="Height <= 0.244\ngini = 0.21\nsamples = 256\nvalue = [4, 226, 26]\nclass = I", fillcolor="#53e891"] ;
9 -> 10 ;
11 [label="Shucked Weight <= 1.325\ngini = 0.205\nsamples = 254\nvalue = [4, 225, 25]\nclass = I", fillcolor="#52e891"] ;
10 -> 11 ;
12 [label="Height <= 0.181\ngini = 0.243\nsamples = 150\nvalue = [1, 129, 20]\nclass = I", fillcolor="#59e995"] ;
11 -> 12 ;
13 [label="Viscera Weight <= 0.276\ngini = 0.191\nsamples = 132\nvalue = [1, 118, 13]\nclass = I", fillcolor="#50e890"] ;
12 -> 13 ;
14 [label="Viscera Weight <= 0.206\ngini = 0.282\nsamples = 47\nvalue = [0, 39, 8]\nclass = I", fillcolor="#62ea9b"] ;
13 -> 14 ;
15 [label="Length <= 0.419\ngini = 0.17\nsamples = 32\nvalue = [0, 29, 3]\nclass = I", fillcolor="#4de88e"] ;
14 -> 15 ;
16 [label="Weight <= 0.638\ngini = 0.278\nsamples = 18\nvalue = [0, 15, 3]\nclass = I", fillcolor="#61ea9a"] ;
15 -> 16 ;
17 [label="Height <= 0.094\ngini = 0.124\nsamples = 15\nvalue = [0, 14, 1]\nclass = I", fillcolor="#47e78a"] ;
16 -> 17 ;
18 [label="gini = 0.0\nsamples = 12\nvalue = [0, 12, 0]\nclass = I", fillcolor="#39e581"] ;
17 -> 18 ;
19 [label="Weight <= 0.468\ngini = 0.444\nsamples = 3\nvalue = [0, 2, 1]\nclass = I", fillcolor="#9cf2c0"] ;
17 -> 19 ;
20 [label="gini = 0.0\nsamples = 1\nvalue = [0, 0, 1]\nclass = M", fillcolor="#8139e5"] ;
19 -> 20 ;
21 [label="gini = 0.0\nsamples = 2\nvalue = [0, 2, 0]\nclass = I", fillcolor="#39e581"] ;
19 -> 21 ;
22 [label="Length <= 0.362\ngini = 0.444\nsamples = 3\nvalue = [0, 1, 2]\nclass = M", fillcolor="#c09cf2"] ;
16 -> 22 ;
23 [label="gini = 0.0\nsamples = 1\nvalue = [0, 1, 0]\nclass = I", fillcolor="#39e581"] ;
22 -> 23 ;
24 [label="gini = 0.0\nsamples = 2\nvalue = [0, 0, 2]\nclass = M", fillcolor="#8139e5"] ;
22 -> 24 ;
25 [label="gini = 0.0\nsamples = 14\nvalue = [0, 14, 0]\nclass = I", fillcolor="#39e581"] ;
15 -> 25 ;
26 [label="Shell Weight <= 0.276\ngini = 0.444\nsamples = 15\nvalue = [0, 10, 5]\nclass = I", fillcolor="#9cf2c0"] ;
14 -> 26 ;
27 [label="gini = 0.0\nsamples = 4\nvalue = [0, 4, 0]\nclass = I", fillcolor="#39e581"] ;
26 -> 27 ;
28 [label="Length <= 0.494\ngini = 0.496\nsamples = 11\nvalue = [0, 6, 5]\nclass = I", fillcolor="#defbea"] ;
26 -> 28 ;
29 [label="gini = 0.0\nsamples = 2\nvalue = [0, 0, 2]\nclass = M", fillcolor="#8139e5"] ;
28 -> 29 ;
30 [label="Shucked Weight <= 0.397\ngini = 0.444\nsamples = 9\nvalue = [0, 6, 3]\nclass = I", fillcolor="#9cf2c0"] ;
28 -> 30 ;
31 [label="gini = 0.0\nsamples = 4\nvalue = [0, 4, 0]\nclass = I", fillcolor="#39e581"] ;
30 -> 31 ;
32 [label="Length <= 0.531\ngini = 0.48\nsamples = 5\nvalue = [0, 2, 3]\nclass = M", fillcolor="#d5bdf6"] ;
30 -> 32 ;
33 [label="gini = 0.0\nsamples = 2\nvalue = [0, 0, 2]\nclass = M", fillcolor="#8139e5"] ;
32 -> 33 ;
34 [label="Viscera Weight <= 0.262\ngini = 0.444\nsamples = 3\nvalue = [0, 2, 1]\nclass = I", fillcolor="#9cf2c0"] ;
32 -> 34 ;
35 [label="gini = 0.0\nsamples = 2\nvalue = [0, 2, 0]\nclass = I", fillcolor="#39e581"] ;
34 -> 35 ;
36 [label="gini = 0.0\nsamples = 1\nvalue = [0, 0, 1]\nclass = M", fillcolor="#8139e5"] ;
34 -> 36 ;
37 [label="Height <= 0.156\ngini = 0.133\nsamples = 85\nvalue = [1, 79, 5]\nclass = I", fillcolor="#48e78a"] ;
13 -> 37 ;
38 [label="gini = 0.0\nsamples = 49\nvalue = [0, 49, 0]\nclass = I", fillcolor="#39e581"] ;
37 -> 38 ;
39 [label="Weight <= 2.736\ngini = 0.285\nsamples = 36\nvalue = [1, 30, 5]\nclass = I", fillcolor="#5fea99"] ;
37 -> 39 ;
40 [label="Diameter <= 0.506\ngini = 0.359\nsamples = 27\nvalue = [1, 21, 5]\nclass = I", fillcolor="#6feca3"] ;
39 -> 40 ;
41 [label="Shucked Weight <= 1.177\ngini = 0.288\nsamples = 24\nvalue = [1, 20, 3]\nclass = I", fillcolor="#5fea99"] ;
40 -> 41 ;
42 [label="Viscera Weight <= 0.411\ngini = 0.234\nsamples = 23\nvalue = [1, 20, 2]\nclass = I", fillcolor="#55e993"] ;
41 -> 42 ;
43 [label="Length <= 0.631\ngini = 0.346\nsamples = 9\nvalue = [0, 7, 2]\nclass = I", fillcolor="#72eca5"] ;
42 -> 43 ;
44 [label="Length <= 0.606\ngini = 0.219\nsamples = 8\nvalue = [0, 7, 1]\nclass = I", fillcolor="#55e993"] ;
43 -> 44 ;
45 [label="gini = 0.0\nsamples = 5\nvalue = [0, 5, 0]\nclass = I", fillcolor="#39e581"] ;
44 -> 45 ;
46 [label="Shucked Weight <= 0.765\ngini = 0.444\nsamples = 3\nvalue = [0, 2, 1]\nclass = I", fillcolor="#9cf2c0"] ;
44 -> 46 ;
47 [label="gini = 0.0\nsamples = 1\nvalue = [0, 0, 1]\nclass = M", fillcolor="#8139e5"] ;
46 -> 47 ;
48 [label="gini = 0.0\nsamples = 2\nvalue = [0, 2, 0]\nclass = I", fillcolor="#39e581"] ;
46 -> 48 ;
49 [label="gini = 0.0\nsamples = 1\nvalue = [0, 0, 1]\nclass = M", fillcolor="#8139e5"] ;
43 -> 49 ;
50 [label="Length <= 0.669\ngini = 0.133\nsamples = 14\nvalue = [1, 13, 0]\nclass = I", fillcolor="#48e78b"] ;
42 -> 50 ;
51 [label="gini = 0.0\nsamples = 10\nvalue = [0, 10, 0]\nclass = I", fillcolor="#39e581"] ;
50 -> 51 ;
52 [label="Shell Weight <= 0.716\ngini = 0.375\nsamples = 4\nvalue = [1, 3, 0]\nclass = I", fillcolor="#7beeab"] ;
50 -> 52 ;
53 [label="gini = 0.0\nsamples = 1\nvalue = [1, 0, 0]\nclass = F", fillcolor="#e58139"] ;
52 -> 53 ;
54 [label="gini = 0.0\nsamples = 3\nvalue = [0, 3, 0]\nclass = I", fillcolor="#39e581"] ;
52 -> 54 ;
55 [label="gini = 0.0\nsamples = 1\nvalue = [0, 0, 1]\nclass = M", fillcolor="#8139e5"] ;
41 -> 55 ;
56 [label="Weight <= 2.693\ngini = 0.444\nsamples = 3\nvalue = [0, 1, 2]\nclass = M", fillcolor="#c09cf2"] ;
40 -> 56 ;
57 [label="gini = 0.0\nsamples = 2\nvalue = [0, 0, 2]\nclass = M", fillcolor="#8139e5"] ;
56 -> 57 ;
58 [label="gini = 0.0\nsamples = 1\nvalue = [0, 1, 0]\nclass = I", fillcolor="#39e581"] ;
56 -> 58 ;
59 [label="gini = 0.0\nsamples = 9\nvalue = [0, 9, 0]\nclass = I", fillcolor="#39e581"] ;
39 -> 59 ;
60 [label="Weight <= 2.523\ngini = 0.475\nsamples = 18\nvalue = [0, 11, 7]\nclass = I", fillcolor="#b7f6d1"] ;
12 -> 60 ;
61 [label="gini = 0.0\nsamples = 5\nvalue = [0, 5, 0]\nclass = I", fillcolor="#39e581"] ;
60 -> 61 ;
62 [label="Viscera Weight <= 0.801\ngini = 0.497\nsamples = 13\nvalue = [0, 6, 7]\nclass = M", fillcolor="#ede3fb"] ;
60 -> 62 ;
63 [label="Diameter <= 0.506\ngini = 0.42\nsamples = 10\nvalue = [0, 3, 7]\nclass = M", fillcolor="#b78ef0"] ;
62 -> 63 ;
64 [label="gini = 0.0\nsamples = 5\nvalue = [0, 0, 5]\nclass = M", fillcolor="#8139e5"] ;
63 -> 64 ;
65 [label="Height <= 0.194\ngini = 0.48\nsamples = 5\nvalue = [0, 3, 2]\nclass = I", fillcolor="#bdf6d5"] ;
63 -> 65 ;
66 [label="gini = 0.0\nsamples = 2\nvalue = [0, 0, 2]\nclass = M", fillcolor="#8139e5"] ;
65 -> 66 ;
67 [label="gini = 0.0\nsamples = 3\nvalue = [0, 3, 0]\nclass = I", fillcolor="#39e581"] ;
65 -> 67 ;
68 [label="gini = 0.0\nsamples = 3\nvalue = [0, 3, 0]\nclass = I", fillcolor="#39e581"] ;
62 -> 68 ;
69 [label="Viscera Weight <= 0.957\ngini = 0.145\nsamples = 104\nvalue = [3, 96, 5]\nclass = I", fillcolor="#49e78b"] ;
11 -> 69 ;
70 [label="Shucked Weight <= 1.467\ngini = 0.034\nsamples = 57\nvalue = [1, 56, 0]\nclass = I", fillcolor="#3de583"] ;
69 -> 70 ;
71 [label="Weight <= 3.841\ngini = 0.165\nsamples = 11\nvalue = [1, 10, 0]\nclass = I", fillcolor="#4de88e"] ;
70 -> 71 ;
72 [label="gini = 0.0\nsamples = 10\nvalue = [0, 10, 0]\nclass = I", fillcolor="#39e581"] ;
71 -> 72 ;
73 [label="gini = 0.0\nsamples = 1\nvalue = [1, 0, 0]\nclass = F", fillcolor="#e58139"] ;
71 -> 73 ;
74 [label="gini = 0.0\nsamples = 46\nvalue = [0, 46, 0]\nclass = I", fillcolor="#39e581"] ;
70 -> 74 ;
75 [label="Viscera Weight <= 1.12\ngini = 0.263\nsamples = 47\nvalue = [2, 40, 5]\nclass = I", fillcolor="#5ae996"] ;
69 -> 75 ;
76 [label="Viscera Weight <= 1.099\ngini = 0.444\nsamples = 21\nvalue = [2, 15, 4]\nclass = I", fillcolor="#7feead"] ;
75 -> 76 ;
77 [label="Length <= 0.794\ngini = 0.405\nsamples = 20\nvalue = [2, 15, 3]\nclass = I", fillcolor="#73eda6"] ;
76 -> 77 ;
78 [label="gini = 0.0\nsamples = 6\nvalue = [0, 6, 0]\nclass = I", fillcolor="#39e581"] ;
77 -> 78 ;
79 [label="Diameter <= 0.613\ngini = 0.52\nsamples = 14\nvalue = [2, 9, 3]\nclass = I", fillcolor="#93f1ba"] ;
77 -> 79 ;
80 [label="Diameter <= 0.562\ngini = 0.56\nsamples = 5\nvalue = [1, 1, 3]\nclass = M", fillcolor="#c09cf2"] ;
79 -> 80 ;
81 [label="Height <= 0.188\ngini = 0.5\nsamples = 2\nvalue = [1, 1, 0]\nclass = F", fillcolor="#ffffff"] ;
80 -> 81 ;
82 [label="gini = 0.0\nsamples = 1\nvalue = [1, 0, 0]\nclass = F", fillcolor="#e58139"] ;
81 -> 82 ;
83 [label="gini = 0.0\nsamples = 1\nvalue = [0, 1, 0]\nclass = I", fillcolor="#39e581"] ;
81 -> 83 ;
84 [label="gini = 0.0\nsamples = 3\nvalue = [0, 0, 3]\nclass = M", fillcolor="#8139e5"] ;
80 -> 84 ;
85 [label="Shucked Weight <= 2.381\ngini = 0.198\nsamples = 9\nvalue = [1, 8, 0]\nclass = I", fillcolor="#52e891"] ;
79 -> 85 ;
86 [label="gini = 0.0\nsamples = 7\nvalue = [0, 7, 0]\nclass = I", fillcolor="#39e581"] ;
85 -> 86 ;
87 [label="Weight <= 5.45\ngini = 0.5\nsamples = 2\nvalue = [1, 1, 0]\nclass = F", fillcolor="#ffffff"] ;
85 -> 87 ;
88 [label="gini = 0.0\nsamples = 1\nvalue = [1, 0, 0]\nclass = F", fillcolor="#e58139"] ;
87 -> 88 ;
89 [label="gini = 0.0\nsamples = 1\nvalue = [0, 1, 0]\nclass = I", fillcolor="#39e581"] ;
87 -> 89 ;
90 [label="gini = 0.0\nsamples = 1\nvalue = [0, 0, 1]\nclass = M", fillcolor="#8139e5"] ;
76 -> 90 ;
91 [label="Length <= 0.881\ngini = 0.074\nsamples = 26\nvalue = [0, 25, 1]\nclass = I", fillcolor="#41e686"] ;
75 -> 91 ;
92 [label="gini = 0.0\nsamples = 20\nvalue = [0, 20, 0]\nclass = I", fillcolor="#39e581"] ;
91 -> 92 ;
93 [label="Diameter <= 0.656\ngini = 0.278\nsamples = 6\nvalue = [0, 5, 1]\nclass = I", fillcolor="#61ea9a"] ;
91 -> 93 ;
94 [label="gini = 0.0\nsamples = 1\nvalue = [0, 0, 1]\nclass = M", fillcolor="#8139e5"] ;
93 -> 94 ;
95 [label="gini = 0.0\nsamples = 5\nvalue = [0, 5, 0]\nclass = I", fillcolor="#39e581"] ;
93 -> 95 ;
96 [label="Viscera Weight <= 1.021\ngini = 0.5\nsamples = 2\nvalue = [0, 1, 1]\nclass = I", fillcolor="#ffffff"] ;
10 -> 96 ;
97 [label="gini = 0.0\nsamples = 1\nvalue = [0, 0, 1]\nclass = M", fillcolor="#8139e5"] ;
96 -> 97 ;
98 [label="gini = 0.0\nsamples = 1\nvalue = [0, 1, 0]\nclass = I", fillcolor="#39e581"] ;
96 -> 98 ;
99 [label="Length <= 0.869\ngini = 0.56\nsamples = 5\nvalue = [1, 3, 1]\nclass = I", fillcolor="#9cf2c0"] ;
9 -> 99 ;
100 [label="gini = 0.0\nsamples = 1\nvalue = [1, 0, 0]\nclass = F", fillcolor="#e58139"] ;
99 -> 100 ;
101 [label="Height <= 0.194\ngini = 0.375\nsamples = 4\nvalue = [0, 3, 1]\nclass = I", fillcolor="#7beeab"] ;
99 -> 101 ;
102 [label="gini = 0.0\nsamples = 1\nvalue = [0, 0, 1]\nclass = M", fillcolor="#8139e5"] ;
101 -> 102 ;
103 [label="gini = 0.0\nsamples = 3\nvalue = [0, 3, 0]\nclass = I", fillcolor="#39e581"] ;
101 -> 103 ;
104 [label="gini = 0.0\nsamples = 4\nvalue = [0, 0, 4]\nclass = M", fillcolor="#8139e5"] ;
8 -> 104 ;
105 [label="Viscera Weight <= 0.723\ngini = 0.142\nsamples = 53\nvalue = [3, 49, 1]\nclass = I", fillcolor="#49e78b"] ;
7 -> 105 ;
106 [label="Diameter <= 0.6\ngini = 0.444\nsamples = 3\nvalue = [1, 2, 0]\nclass = I", fillcolor="#9cf2c0"] ;
105 -> 106 ;
107 [label="gini = 0.0\nsamples = 2\nvalue = [0, 2, 0]\nclass = I", fillcolor="#39e581"] ;
106 -> 107 ;
108 [label="gini = 0.0\nsamples = 1\nvalue = [1, 0, 0]\nclass = F", fillcolor="#e58139"] ;
106 -> 108 ;
109 [label="Diameter <= 0.738\ngini = 0.114\nsamples = 50\nvalue = [2, 47, 1]\nclass = I", fillcolor="#45e789"] ;
105 -> 109 ;
110 [label="Age <= 5.5\ngini = 0.082\nsamples = 47\nvalue = [1, 45, 1]\nclass = I", fillcolor="#42e686"] ;
109 -> 110 ;
111 [label="Weight <= 6.69\ngini = 0.278\nsamples = 6\nvalue = [1, 5, 0]\nclass = I", fillcolor="#61ea9a"] ;
110 -> 111 ;
112 [label="gini = 0.0\nsamples = 4\nvalue = [0, 4, 0]\nclass = I", fillcolor="#39e581"] ;
111 -> 112 ;
113 [label="Weight <= 7.399\ngini = 0.5\nsamples = 2\nvalue = [1, 1, 0]\nclass = F", fillcolor="#ffffff"] ;
111 -> 113 ;
114 [label="gini = 0.0\nsamples = 1\nvalue = [1, 0, 0]\nclass = F", fillcolor="#e58139"] ;
113 -> 114 ;
115 [label="gini = 0.0\nsamples = 1\nvalue = [0, 1, 0]\nclass = I", fillcolor="#39e581"] ;
113 -> 115 ;
116 [label="Length <= 0.881\ngini = 0.048\nsamples = 41\nvalue = [0, 40, 1]\nclass = I", fillcolor="#3ee684"] ;
110 -> 116 ;
117 [label="Length <= 0.869\ngini = 0.245\nsamples = 7\nvalue = [0, 6, 1]\nclass = I", fillcolor="#5ae996"] ;
116 -> 117 ;
118 [label="gini = 0.0\nsamples = 5\nvalue = [0, 5, 0]\nclass = I", fillcolor="#39e581"] ;
117 -> 118 ;
119 [label="Height <= 0.206\ngini = 0.5\nsamples = 2\nvalue = [0, 1, 1]\nclass = I", fillcolor="#ffffff"] ;
117 -> 119 ;
120 [label="gini = 0.0\nsamples = 1\nvalue = [0, 1, 0]\nclass = I", fillcolor="#39e581"] ;
119 -> 120 ;
121 [label="gini = 0.0\nsamples = 1\nvalue = [0, 0, 1]\nclass = M", fillcolor="#8139e5"] ;
119 -> 121 ;
122 [label="gini = 0.0\nsamples = 34\nvalue = [0, 34, 0]\nclass = I", fillcolor="#39e581"] ;
116 -> 122 ;
123 [label="Shucked Weight <= 3.317\ngini = 0.444\nsamples = 3\nvalue = [1, 2, 0]\nclass = I", fillcolor="#9cf2c0"] ;
109 -> 123 ;
124 [label="gini = 0.0\nsamples = 1\nvalue = [1, 0, 0]\nclass = F", fillcolor="#e58139"] ;
123 -> 124 ;
125 [label="gini = 0.0\nsamples = 2\nvalue = [0, 2, 0]\nclass = I", fillcolor="#39e581"] ;
123 -> 125 ;
126 [label="gini = 0.0\nsamples = 1\nvalue = [1, 0, 0]\nclass = F", fillcolor="#e58139"] ;
6 -> 126 ;
127 [label="Viscera Weight <= 2.495\ngini = 0.444\nsamples = 3\nvalue = [0, 1, 2]\nclass = M", fillcolor="#c09cf2"] ;
5 -> 127 ;
128 [label="gini = 0.0\nsamples = 2\nvalue = [0, 0, 2]\nclass = M", fillcolor="#8139e5"] ;
127 -> 128 ;
129 [label="gini = 0.0\nsamples = 1\nvalue = [0, 1, 0]\nclass = I", fillcolor="#39e581"] ;
127 -> 129 ;
130 [label="Viscera Weight <= 1.439\ngini = 0.034\nsamples = 58\nvalue = [0, 57, 1]\nclass = I", fillcolor="#3ce583"] ;
4 -> 130 ;
131 [label="Viscera Weight <= 1.425\ngini = 0.375\nsamples = 4\nvalue = [0, 3, 1]\nclass = I", fillcolor="#7beeab"] ;
130 -> 131 ;
132 [label="gini = 0.0\nsamples = 2\nvalue = [0, 2, 0]\nclass = I", fillcolor="#39e581"] ;
131 -> 132 ;
133 [label="Length <= 1.025\ngini = 0.5\nsamples = 2\nvalue = [0, 1, 1]\nclass = I", fillcolor="#ffffff"] ;
131 -> 133 ;
134 [label="gini = 0.0\nsamples = 1\nvalue = [0, 1, 0]\nclass = I", fillcolor="#39e581"] ;
133 -> 134 ;
135 [label="gini = 0.0\nsamples = 1\nvalue = [0, 0, 1]\nclass = M", fillcolor="#8139e5"] ;
133 -> 135 ;
136 [label="gini = 0.0\nsamples = 54\nvalue = [0, 54, 0]\nclass = I", fillcolor="#39e581"] ;
130 -> 136 ;
137 [label="Weight <= 2.41\ngini = 0.347\nsamples = 370\nvalue = [22, 293, 55]\nclass = I", fillcolor="#69eba0"] ;
3 -> 137 ;
138 [label="gini = 0.0\nsamples = 4\nvalue = [0, 0, 4]\nclass = M", fillcolor="#8139e5"] ;
137 -> 138 ;
139 [label="Shell Weight <= 4.295\ngini = 0.336\nsamples = 366\nvalue = [22, 293, 51]\nclass = I", fillcolor="#67eb9e"] ;
137 -> 139 ;
140 [label="Shucked Weight <= 2.318\ngini = 0.322\nsamples = 358\nvalue = [19, 290, 49]\nclass = I", fillcolor="#65eb9d"] ;
139 -> 140 ;
141 [label="Shucked Weight <= 2.24\ngini = 0.456\nsamples = 71\nvalue = [4, 49, 18]\nclass = I", fillcolor="#8bf0b5"] ;
140 -> 141 ;
142 [label="Weight <= 5.833\ngini = 0.433\nsamples = 67\nvalue = [4, 48, 15]\nclass = I", fillcolor="#81eeaf"] ;
141 -> 142 ;
143 [label="Shell Weight <= 1.013\ngini = 0.417\nsamples = 66\nvalue = [3, 48, 15]\nclass = I", fillcolor="#7feead"] ;
142 -> 143 ;
144 [label="Height <= 0.194\ngini = 0.133\nsamples = 14\nvalue = [0, 13, 1]\nclass = I", fillcolor="#48e78b"] ;
143 -> 144 ;
145 [label="gini = 0.0\nsamples = 10\nvalue = [0, 10, 0]\nclass = I", fillcolor="#39e581"] ;
144 -> 145 ;
146 [label="Shucked Weight <= 1.155\ngini = 0.375\nsamples = 4\nvalue = [0, 3, 1]\nclass = I", fillcolor="#7beeab"] ;
144 -> 146 ;
147 [label="gini = 0.0\nsamples = 3\nvalue = [0, 3, 0]\nclass = I", fillcolor="#39e581"] ;
146 -> 147 ;
148 [label="gini = 0.0\nsamples = 1\nvalue = [0, 0, 1]\nclass = M", fillcolor="#8139e5"] ;
146 -> 148 ;
149 [label="Length <= 0.744\ngini = 0.471\nsamples = 52\nvalue = [3, 35, 14]\nclass = I", fillcolor="#92f1b9"] ;
143 -> 149 ;
150 [label="Shucked Weight <= 1.12\ngini = 0.278\nsamples = 6\nvalue = [0, 1, 5]\nclass = M", fillcolor="#9a61ea"] ;
149 -> 150 ;
151 [label="gini = 0.0\nsamples = 1\nvalue = [0, 1, 0]\nclass = I", fillcolor="#39e581"] ;
150 -> 151 ;
152 [label="gini = 0.0\nsamples = 5\nvalue = [0, 0, 5]\nclass = M", fillcolor="#8139e5"] ;
150 -> 152 ;
153 [label="Shell Weight <= 2.155\ngini = 0.411\nsamples = 46\nvalue = [3, 34, 9]\nclass = I", fillcolor="#79edaa"] ;
149 -> 153 ;
154 [label="Viscera Weight <= 0.716\ngini = 0.393\nsamples = 45\nvalue = [3, 34, 8]\nclass = I", fillcolor="#74eda6"] ;
153 -> 154 ;
155 [label="gini = 0.0\nsamples = 1\nvalue = [0, 0, 1]\nclass = M", fillcolor="#8139e5"] ;
154 -> 155 ;
156 [label="Viscera Weight <= 1.155\ngini = 0.373\nsamples = 44\nvalue = [3, 34, 7]\nclass = I", fillcolor="#6feca3"] ;
154 -> 156 ;
157 [label="Length <= 0.769\ngini = 0.247\nsamples = 29\nvalue = [2, 25, 2]\nclass = I", fillcolor="#56e994"] ;
156 -> 157 ;
158 [label="Length <= 0.756\ngini = 0.48\nsamples = 5\nvalue = [2, 3, 0]\nclass = I", fillcolor="#bdf6d5"] ;
157 -> 158 ;
159 [label="gini = 0.0\nsamples = 2\nvalue = [0, 2, 0]\nclass = I", fillcolor="#39e581"] ;
158 -> 159 ;
160 [label="Diameter <= 0.594\ngini = 0.444\nsamples = 3\nvalue = [2, 1, 0]\nclass = F", fillcolor="#f2c09c"] ;
158 -> 160 ;
161 [label="gini = 0.0\nsamples = 2\nvalue = [2, 0, 0]\nclass = F", fillcolor="#e58139"] ;
160 -> 161 ;
162 [label="gini = 0.0\nsamples = 1\nvalue = [0, 1, 0]\nclass = I", fillcolor="#39e581"] ;
160 -> 162 ;
163 [label="Shucked Weight <= 1.495\ngini = 0.153\nsamples = 24\nvalue = [0, 22, 2]\nclass = I", fillcolor="#4be78c"] ;
157 -> 163 ;
164 [label="Weight <= 3.948\ngini = 0.5\nsamples = 2\nvalue = [0, 1, 1]\nclass = I", fillcolor="#ffffff"] ;
163 -> 164 ;
165 [label="gini = 0.0\nsamples = 1\nvalue = [0, 1, 0]\nclass = I", fillcolor="#39e581"] ;
164 -> 165 ;
166 [label="gini = 0.0\nsamples = 1\nvalue = [0, 0, 1]\nclass = M", fillcolor="#8139e5"] ;
164 -> 166 ;
167 [label="Age <= 7.5\ngini = 0.087\nsamples = 22\nvalue = [0, 21, 1]\nclass = I", fillcolor="#42e687"] ;
163 -> 167 ;
168 [label="gini = 0.0\nsamples = 17\nvalue = [0, 17, 0]\nclass = I", fillcolor="#39e581"] ;
167 -> 168 ;
169 [label="Shucked Weight <= 1.673\ngini = 0.32\nsamples = 5\nvalue = [0, 4, 1]\nclass = I", fillcolor="#6aeca0"] ;
167 -> 169 ;
170 [label="gini = 0.0\nsamples = 3\nvalue = [0, 3, 0]\nclass = I", fillcolor="#39e581"] ;
169 -> 170 ;
171 [label="Length <= 0.862\ngini = 0.5\nsamples = 2\nvalue = [0, 1, 1]\nclass = I", fillcolor="#ffffff"] ;
169 -> 171 ;
172 [label="gini = 0.0\nsamples = 1\nvalue = [0, 0, 1]\nclass = M", fillcolor="#8139e5"] ;
171 -> 172 ;
173 [label="gini = 0.0\nsamples = 1\nvalue = [0, 1, 0]\nclass = I", fillcolor="#39e581"] ;
171 -> 173 ;
174 [label="Shucked Weight <= 1.97\ngini = 0.524\nsamples = 15\nvalue = [1, 9, 5]\nclass = I", fillcolor="#b0f5cd"] ;
156 -> 174 ;
175 [label="Weight <= 4.415\ngini = 0.375\nsamples = 4\nvalue = [0, 1, 3]\nclass = M", fillcolor="#ab7bee"] ;
174 -> 175 ;
176 [label="gini = 0.0\nsamples = 1\nvalue = [0, 1, 0]\nclass = I", fillcolor="#39e581"] ;
175 -> 176 ;
177 [label="gini = 0.0\nsamples = 3\nvalue = [0, 0, 3]\nclass = M", fillcolor="#8139e5"] ;
175 -> 177 ;
178 [label="Shell Weight <= 1.715\ngini = 0.43\nsamples = 11\nvalue = [1, 8, 2]\nclass = I", fillcolor="#7beeab"] ;
174 -> 178 ;
179 [label="Shell Weight <= 1.673\ngini = 0.611\nsamples = 6\nvalue = [1, 3, 2]\nclass = I", fillcolor="#cef8e0"] ;
178 -> 179 ;
180 [label="gini = 0.0\nsamples = 3\nvalue = [0, 3, 0]\nclass = I", fillcolor="#39e581"] ;
179 -> 180 ;
181 [label="Diameter <= 0.65\ngini = 0.444\nsamples = 3\nvalue = [1, 0, 2]\nclass = M", fillcolor="#c09cf2"] ;
179 -> 181 ;
182 [label="gini = 0.0\nsamples = 2\nvalue = [0, 0, 2]\nclass = M", fillcolor="#8139e5"] ;
181 -> 182 ;
183 [label="gini = 0.0\nsamples = 1\nvalue = [1, 0, 0]\nclass = F", fillcolor="#e58139"] ;
181 -> 183 ;
184 [label="gini = 0.0\nsamples = 5\nvalue = [0, 5, 0]\nclass = I", fillcolor="#39e581"] ;
178 -> 184 ;
185 [label="gini = 0.0\nsamples = 1\nvalue = [0, 0, 1]\nclass = M", fillcolor="#8139e5"] ;
153 -> 185 ;
186 [label="gini = 0.0\nsamples = 1\nvalue = [1, 0, 0]\nclass = F", fillcolor="#e58139"] ;
142 -> 186 ;
187 [label="Height <= 0.269\ngini = 0.375\nsamples = 4\nvalue = [0, 1, 3]\nclass = M", fillcolor="#ab7bee"] ;
141 -> 187 ;
188 [label="gini = 0.0\nsamples = 3\nvalue = [0, 0, 3]\nclass = M", fillcolor="#8139e5"] ;
187 -> 188 ;
189 [label="gini = 0.0\nsamples = 1\nvalue = [0, 1, 0]\nclass = I", fillcolor="#39e581"] ;
187 -> 189 ;
190 [label="Height <= 0.281\ngini = 0.28\nsamples = 287\nvalue = [15, 241, 31]\nclass = I", fillcolor="#5dea98"] ;
140 -> 190 ;
191 [label="Weight <= 14.026\ngini = 0.231\nsamples = 234\nvalue = [10, 204, 20]\nclass = I", fillcolor="#55e993"] ;
190 -> 191 ;
192 [label="Viscera Weight <= 0.801\ngini = 0.22\nsamples = 231\nvalue = [10, 203, 18]\nclass = I", fillcolor="#53e892"] ;
191 -> 192 ;
193 [label="gini = 0.0\nsamples = 1\nvalue = [1, 0, 0]\nclass = F", fillcolor="#e58139"] ;
192 -> 193 ;
194 [label="Length <= 0.969\ngini = 0.213\nsamples = 230\nvalue = [9, 203, 18]\nclass = I", fillcolor="#52e891"] ;
192 -> 194 ;
195 [label="Height <= 0.244\ngini = 0.321\nsamples = 91\nvalue = [7, 74, 10]\nclass = I", fillcolor="#63ea9b"] ;
194 -> 195 ;
196 [label="Diameter <= 0.756\ngini = 0.164\nsamples = 68\nvalue = [4, 62, 2]\nclass = I", fillcolor="#4ce78d"] ;
195 -> 196 ;
197 [label="Viscera Weight <= 1.765\ngini = 0.141\nsamples = 67\nvalue = [3, 62, 2]\nclass = I", fillcolor="#48e78b"] ;
196 -> 197 ;
198 [label="Length <= 0.819\ngini = 0.096\nsamples = 60\nvalue = [1, 57, 2]\nclass = I", fillcolor="#43e688"] ;
197 -> 198 ;
199 [label="Weight <= 5.308\ngini = 0.444\nsamples = 3\nvalue = [1, 2, 0]\nclass = I", fillcolor="#9cf2c0"] ;
198 -> 199 ;
200 [label="gini = 0.0\nsamples = 2\nvalue = [0, 2, 0]\nclass = I", fillcolor="#39e581"] ;
199 -> 200 ;
201 [label="gini = 0.0\nsamples = 1\nvalue = [1, 0, 0]\nclass = F", fillcolor="#e58139"] ;
199 -> 201 ;
202 [label="Shell Weight <= 2.693\ngini = 0.068\nsamples = 57\nvalue = [0, 55, 2]\nclass = I", fillcolor="#40e686"] ;
198 -> 202 ;
203 [label="Length <= 0.881\ngini = 0.036\nsamples = 54\nvalue = [0, 53, 1]\nclass = I", fillcolor="#3de583"] ;
202 -> 203 ;
204 [label="Weight <= 6.35\ngini = 0.133\nsamples = 14\nvalue = [0, 13, 1]\nclass = I", fillcolor="#48e78b"] ;
203 -> 204 ;
205 [label="gini = 0.0\nsamples = 13\nvalue = [0, 13, 0]\nclass = I", fillcolor="#39e581"] ;
204 -> 205 ;
206 [label="gini = 0.0\nsamples = 1\nvalue = [0, 0, 1]\nclass = M", fillcolor="#8139e5"] ;
204 -> 206 ;
207 [label="gini = 0.0\nsamples = 40\nvalue = [0, 40, 0]\nclass = I", fillcolor="#39e581"] ;
203 -> 207 ;
208 [label="Shucked Weight <= 2.722\ngini = 0.444\nsamples = 3\nvalue = [0, 2, 1]\nclass = I", fillcolor="#9cf2c0"] ;
202 -> 208 ;
209 [label="gini = 0.0\nsamples = 2\nvalue = [0, 2, 0]\nclass = I", fillcolor="#39e581"] ;
208 -> 209 ;
210 [label="gini = 0.0\nsamples = 1\nvalue = [0, 0, 1]\nclass = M", fillcolor="#8139e5"] ;
208 -> 210 ;
211 [label="Height <= 0.206\ngini = 0.408\nsamples = 7\nvalue = [2, 5, 0]\nclass = I", fillcolor="#88efb3"] ;
197 -> 211 ;
212 [label="Viscera Weight <= 2.339\ngini = 0.444\nsamples = 3\nvalue = [2, 1, 0]\nclass = F", fillcolor="#f2c09c"] ;
211 -> 212 ;
213 [label="gini = 0.0\nsamples = 2\nvalue = [2, 0, 0]\nclass = F", fillcolor="#e58139"] ;
212 -> 213 ;
214 [label="gini = 0.0\nsamples = 1\nvalue = [0, 1, 0]\nclass = I", fillcolor="#39e581"] ;
212 -> 214 ;
215 [label="gini = 0.0\nsamples = 4\nvalue = [0, 4, 0]\nclass = I", fillcolor="#39e581"] ;
211 -> 215 ;
216 [label="gini = 0.0\nsamples = 1\nvalue = [1, 0, 0]\nclass = F", fillcolor="#e58139"] ;
196 -> 216 ;
217 [label="Shell Weight <= 2.077\ngini = 0.59\nsamples = 23\nvalue = [3, 12, 8]\nclass = I", fillcolor="#caf8dd"] ;
195 -> 217 ;
218 [label="gini = 0.0\nsamples = 7\nvalue = [0, 7, 0]\nclass = I", fillcolor="#39e581"] ;
217 -> 218 ;
219 [label="Diameter <= 0.706\ngini = 0.617\nsamples = 16\nvalue = [3, 5, 8]\nclass = M", fillcolor="#ddc9f8"] ;
217 -> 219 ;
220 [label="Weight <= 10.192\ngini = 0.245\nsamples = 7\nvalue = [0, 1, 6]\nclass = M", fillcolor="#965ae9"] ;
219 -> 220 ;
221 [label="gini = 0.0\nsamples = 6\nvalue = [0, 0, 6]\nclass = M", fillcolor="#8139e5"] ;
220 -> 221 ;
222 [label="gini = 0.0\nsamples = 1\nvalue = [0, 1, 0]\nclass = I", fillcolor="#39e581"] ;
220 -> 222 ;
223 [label="Viscera Weight <= 1.552\ngini = 0.642\nsamples = 9\nvalue = [3, 4, 2]\nclass = I", fillcolor="#defbea"] ;
219 -> 223 ;
224 [label="gini = 0.0\nsamples = 2\nvalue = [0, 0, 2]\nclass = M", fillcolor="#8139e5"] ;
223 -> 224 ;
225 [label="Shell Weight <= 2.693\ngini = 0.49\nsamples = 7\nvalue = [3, 4, 0]\nclass = I", fillcolor="#cef8e0"] ;
223 -> 225 ;
226 [label="Viscera Weight <= 1.602\ngini = 0.32\nsamples = 5\nvalue = [1, 4, 0]\nclass = I", fillcolor="#6aeca0"] ;
225 -> 226 ;
227 [label="Shell Weight <= 2.459\ngini = 0.5\nsamples = 2\nvalue = [1, 1, 0]\nclass = F", fillcolor="#ffffff"] ;
226 -> 227 ;
228 [label="gini = 0.0\nsamples = 1\nvalue = [1, 0, 0]\nclass = F", fillcolor="#e58139"] ;
227 -> 228 ;
229 [label="gini = 0.0\nsamples = 1\nvalue = [0, 1, 0]\nclass = I", fillcolor="#39e581"] ;
227 -> 229 ;
230 [label="gini = 0.0\nsamples = 3\nvalue = [0, 3, 0]\nclass = I", fillcolor="#39e581"] ;
226 -> 230 ;
231 [label="gini = 0.0\nsamples = 2\nvalue = [2, 0, 0]\nclass = F", fillcolor="#e58139"] ;
225 -> 231 ;
232 [label="Height <= 0.219\ngini = 0.135\nsamples = 139\nvalue = [2, 129, 8]\nclass = I", fillcolor="#48e78b"] ;
194 -> 232 ;
233 [label="Shell Weight <= 3.402\ngini = 0.375\nsamples = 8\nvalue = [0, 6, 2]\nclass = I", fillcolor="#7beeab"] ;
232 -> 233 ;
234 [label="Shucked Weight <= 3.374\ngini = 0.245\nsamples = 7\nvalue = [0, 6, 1]\nclass = I", fillcolor="#5ae996"] ;
233 -> 234 ;
235 [label="gini = 0.0\nsamples = 1\nvalue = [0, 0, 1]\nclass = M", fillcolor="#8139e5"] ;
234 -> 235 ;
236 [label="gini = 0.0\nsamples = 6\nvalue = [0, 6, 0]\nclass = I", fillcolor="#39e581"] ;
234 -> 236 ;
237 [label="gini = 0.0\nsamples = 1\nvalue = [0, 0, 1]\nclass = M", fillcolor="#8139e5"] ;
233 -> 237 ;
238 [label="Viscera Weight <= 2.495\ngini = 0.116\nsamples = 131\nvalue = [2, 123, 6]\nclass = I", fillcolor="#46e789"] ;
232 -> 238 ;
239 [label="Diameter <= 0.719\ngini = 0.082\nsamples = 117\nvalue = [1, 112, 4]\nclass = I", fillcolor="#42e687"] ;
238 -> 239 ;
240 [label="Diameter <= 0.706\ngini = 0.375\nsamples = 4\nvalue = [0, 3, 1]\nclass = I", fillcolor="#7beeab"] ;
239 -> 240 ;
241 [label="gini = 0.0\nsamples = 2\nvalue = [0, 2, 0]\nclass = I", fillcolor="#39e581"] ;
240 -> 241 ;
242 [label="Shell Weight <= 2.225\ngini = 0.5\nsamples = 2\nvalue = [0, 1, 1]\nclass = I", fillcolor="#ffffff"] ;
240 -> 242 ;
243 [label="gini = 0.0\nsamples = 1\nvalue = [0, 1, 0]\nclass = I", fillcolor="#39e581"] ;
242 -> 243 ;
244 [label="gini = 0.0\nsamples = 1\nvalue = [0, 0, 1]\nclass = M", fillcolor="#8139e5"] ;
242 -> 244 ;
245 [label="Shell Weight <= 2.686\ngini = 0.069\nsamples = 113\nvalue = [1, 109, 3]\nclass = I", fillcolor="#40e686"] ;
239 -> 245 ;
246 [label="gini = 0.0\nsamples = 38\nvalue = [0, 38, 0]\nclass = I", fillcolor="#39e581"] ;
245 -> 246 ;
247 [label="Length <= 1.006\ngini = 0.102\nsamples = 75\nvalue = [1, 71, 3]\nclass = I", fillcolor="#44e688"] ;
245 -> 247 ;
248 [label="Viscera Weight <= 1.892\ngini = 0.5\nsamples = 2\nvalue = [0, 1, 1]\nclass = I", fillcolor="#ffffff"] ;
247 -> 248 ;
249 [label="gini = 0.0\nsamples = 1\nvalue = [0, 0, 1]\nclass = M", fillcolor="#8139e5"] ;
248 -> 249 ;
250 [label="gini = 0.0\nsamples = 1\nvalue = [0, 1, 0]\nclass = I", fillcolor="#39e581"] ;
248 -> 250 ;
251 [label="Diameter <= 0.756\ngini = 0.08\nsamples = 73\nvalue = [1, 70, 2]\nclass = I", fillcolor="#41e686"] ;
247 -> 251 ;
252 [label="Shell Weight <= 2.7\ngini = 0.444\nsamples = 3\nvalue = [0, 2, 1]\nclass = I", fillcolor="#9cf2c0"] ;
251 -> 252 ;
253 [label="gini = 0.0\nsamples = 1\nvalue = [0, 0, 1]\nclass = M", fillcolor="#8139e5"] ;
252 -> 253 ;
254 [label="gini = 0.0\nsamples = 2\nvalue = [0, 2, 0]\nclass = I", fillcolor="#39e581"] ;
252 -> 254 ;
255 [label="Viscera Weight <= 2.261\ngini = 0.056\nsamples = 70\nvalue = [1, 68, 1]\nclass = I", fillcolor="#3fe685"] ;
251 -> 255 ;
256 [label="gini = 0.0\nsamples = 45\nvalue = [0, 45, 0]\nclass = I", fillcolor="#39e581"] ;
255 -> 256 ;
257 [label="Viscera Weight <= 2.289\ngini = 0.15\nsamples = 25\nvalue = [1, 23, 1]\nclass = I", fillcolor="#49e78c"] ;
255 -> 257 ;
258 [label="Shell Weight <= 2.899\ngini = 0.667\nsamples = 3\nvalue = [1, 1, 1]\nclass = F", fillcolor="#ffffff"] ;
257 -> 258 ;
259 [label="gini = 0.0\nsamples = 1\nvalue = [0, 0, 1]\nclass = M", fillcolor="#8139e5"] ;
258 -> 259 ;
260 [label="Shell Weight <= 3.147\ngini = 0.5\nsamples = 2\nvalue = [1, 1, 0]\nclass = F", fillcolor="#ffffff"] ;
258 -> 260 ;
261 [label="gini = 0.0\nsamples = 1\nvalue = [0, 1, 0]\nclass = I", fillcolor="#39e581"] ;
260 -> 261 ;
262 [label="gini = 0.0\nsamples = 1\nvalue = [1, 0, 0]\nclass = F", fillcolor="#e58139"] ;
260 -> 262 ;
263 [label="gini = 0.0\nsamples = 22\nvalue = [0, 22, 0]\nclass = I", fillcolor="#39e581"] ;
257 -> 263 ;
264 [label="Viscera Weight <= 2.516\ngini = 0.357\nsamples = 14\nvalue = [1, 11, 2]\nclass = I", fillcolor="#6beca0"] ;
238 -> 264 ;
265 [label="gini = 0.0\nsamples = 1\nvalue = [0, 0, 1]\nclass = M", fillcolor="#8139e5"] ;
264 -> 265 ;
266 [label="Length <= 1.038\ngini = 0.272\nsamples = 13\nvalue = [1, 11, 1]\nclass = I", fillcolor="#5ae996"] ;
264 -> 266 ;
267 [label="gini = 0.0\nsamples = 1\nvalue = [0, 0, 1]\nclass = M", fillcolor="#8139e5"] ;
266 -> 267 ;
268 [label="Shucked Weight <= 4.72\ngini = 0.153\nsamples = 12\nvalue = [1, 11, 0]\nclass = I", fillcolor="#4be78c"] ;
266 -> 268 ;
269 [label="Weight <= 11.432\ngini = 0.5\nsamples = 2\nvalue = [1, 1, 0]\nclass = F", fillcolor="#ffffff"] ;
268 -> 269 ;
270 [label="gini = 0.0\nsamples = 1\nvalue = [0, 1, 0]\nclass = I", fillcolor="#39e581"] ;
269 -> 270 ;
271 [label="gini = 0.0\nsamples = 1\nvalue = [1, 0, 0]\nclass = F", fillcolor="#e58139"] ;
269 -> 271 ;
272 [label="gini = 0.0\nsamples = 10\nvalue = [0, 10, 0]\nclass = I", fillcolor="#39e581"] ;
268 -> 272 ;
273 [label="Viscera Weight <= 2.495\ngini = 0.444\nsamples = 3\nvalue = [0, 1, 2]\nclass = M", fillcolor="#c09cf2"] ;
191 -> 273 ;
274 [label="gini = 0.0\nsamples = 2\nvalue = [0, 0, 2]\nclass = M", fillcolor="#8139e5"] ;
273 -> 274 ;
275 [label="gini = 0.0\nsamples = 1\nvalue = [0, 1, 0]\nclass = I", fillcolor="#39e581"] ;
273 -> 275 ;
276 [label="Age <= 7.5\ngini = 0.461\nsamples = 53\nvalue = [5, 37, 11]\nclass = I", fillcolor="#84efb1"] ;
190 -> 276 ;
277 [label="Viscera Weight <= 2.438\ngini = 0.219\nsamples = 24\nvalue = [0, 21, 3]\nclass = I", fillcolor="#55e993"] ;
276 -> 277 ;
278 [label="gini = 0.0\nsamples = 15\nvalue = [0, 15, 0]\nclass = I", fillcolor="#39e581"] ;
277 -> 278 ;
279 [label="Diameter <= 0.844\ngini = 0.444\nsamples = 9\nvalue = [0, 6, 3]\nclass = I", fillcolor="#9cf2c0"] ;
277 -> 279 ;
280 [label="Height <= 0.294\ngini = 0.375\nsamples = 4\nvalue = [0, 1, 3]\nclass = M", fillcolor="#ab7bee"] ;
279 -> 280 ;
281 [label="gini = 0.0\nsamples = 1\nvalue = [0, 1, 0]\nclass = I", fillcolor="#39e581"] ;
280 -> 281 ;
282 [label="gini = 0.0\nsamples = 3\nvalue = [0, 0, 3]\nclass = M", fillcolor="#8139e5"] ;
280 -> 282 ;
283 [label="gini = 0.0\nsamples = 5\nvalue = [0, 5, 0]\nclass = I", fillcolor="#39e581"] ;
279 -> 283 ;
284 [label="Viscera Weight <= 1.666\ngini = 0.59\nsamples = 29\nvalue = [5, 16, 8]\nclass = I", fillcolor="#b4f5cf"] ;
276 -> 284 ;
285 [label="gini = 0.0\nsamples = 2\nvalue = [2, 0, 0]\nclass = F", fillcolor="#e58139"] ;
284 -> 285 ;
286 [label="Height <= 0.294\ngini = 0.549\nsamples = 27\nvalue = [3, 16, 8]\nclass = I", fillcolor="#acf4ca"] ;
284 -> 286 ;
287 [label="Diameter <= 0.831\ngini = 0.562\nsamples = 11\nvalue = [1, 4, 6]\nclass = M", fillcolor="#dbc6f8"] ;
286 -> 287 ;
288 [label="Weight <= 8.257\ngini = 0.5\nsamples = 6\nvalue = [1, 4, 1]\nclass = I", fillcolor="#88efb3"] ;
287 -> 288 ;
289 [label="gini = 0.0\nsamples = 1\nvalue = [0, 0, 1]\nclass = M", fillcolor="#8139e5"] ;
288 -> 289 ;
290 [label="Shell Weight <= 3.685\ngini = 0.32\nsamples = 5\nvalue = [1, 4, 0]\nclass = I", fillcolor="#6aeca0"] ;
288 -> 290 ;
291 [label="gini = 0.0\nsamples = 4\nvalue = [0, 4, 0]\nclass = I", fillcolor="#39e581"] ;
290 -> 291 ;
292 [label="gini = 0.0\nsamples = 1\nvalue = [1, 0, 0]\nclass = F", fillcolor="#e58139"] ;
290 -> 292 ;
293 [label="gini = 0.0\nsamples = 5\nvalue = [0, 0, 5]\nclass = M", fillcolor="#8139e5"] ;
287 -> 293 ;
294 [label="Shucked Weight <= 6.889\ngini = 0.406\nsamples = 16\nvalue = [2, 12, 2]\nclass = I", fillcolor="#72eca5"] ;
286 -> 294 ;
295 [label="Shell Weight <= 3.083\ngini = 0.255\nsamples = 14\nvalue = [1, 12, 1]\nclass = I", fillcolor="#57e994"] ;
294 -> 295 ;
296 [label="Viscera Weight <= 2.034\ngini = 0.625\nsamples = 4\nvalue = [1, 2, 1]\nclass = I", fillcolor="#bdf6d5"] ;
295 -> 296 ;
297 [label="gini = 0.0\nsamples = 2\nvalue = [0, 2, 0]\nclass = I", fillcolor="#39e581"] ;
296 -> 297 ;
298 [label="Weight <= 10.227\ngini = 0.5\nsamples = 2\nvalue = [1, 0, 1]\nclass = F", fillcolor="#ffffff"] ;
296 -> 298 ;
299 [label="gini = 0.0\nsamples = 1\nvalue = [1, 0, 0]\nclass = F", fillcolor="#e58139"] ;
298 -> 299 ;
300 [label="gini = 0.0\nsamples = 1\nvalue = [0, 0, 1]\nclass = M", fillcolor="#8139e5"] ;
298 -> 300 ;
301 [label="gini = 0.0\nsamples = 10\nvalue = [0, 10, 0]\nclass = I", fillcolor="#39e581"] ;
295 -> 301 ;
302 [label="Diameter <= 0.856\ngini = 0.5\nsamples = 2\nvalue = [1, 0, 1]\nclass = F", fillcolor="#ffffff"] ;
294 -> 302 ;
303 [label="gini = 0.0\nsamples = 1\nvalue = [0, 0, 1]\nclass = M", fillcolor="#8139e5"] ;
302 -> 303 ;
304 [label="gini = 0.0\nsamples = 1\nvalue = [1, 0, 0]\nclass = F", fillcolor="#e58139"] ;
302 -> 304 ;
305 [label="Age <= 7.5\ngini = 0.656\nsamples = 8\nvalue = [3, 3, 2]\nclass = F", fillcolor="#ffffff"] ;
139 -> 305 ;
306 [label="gini = 0.0\nsamples = 3\nvalue = [3, 0, 0]\nclass = F", fillcolor="#e58139"] ;
305 -> 306 ;
307 [label="Shell Weight <= 5.089\ngini = 0.48\nsamples = 5\nvalue = [0, 3, 2]\nclass = I", fillcolor="#bdf6d5"] ;
305 -> 307 ;
308 [label="gini = 0.0\nsamples = 2\nvalue = [0, 0, 2]\nclass = M", fillcolor="#8139e5"] ;
307 -> 308 ;
309 [label="gini = 0.0\nsamples = 3\nvalue = [0, 3, 0]\nclass = I", fillcolor="#39e581"] ;
307 -> 309 ;
310 [label="Shucked Weight <= 4.515\ngini = 0.544\nsamples = 284\nvalue = [44, 175, 65]\nclass = I", fillcolor="#9cf2c0"] ;
2 -> 310 ;
311 [label="Height <= 0.256\ngini = 0.494\nsamples = 9\nvalue = [6, 1, 2]\nclass = F", fillcolor="#f0b78e"] ;
310 -> 311 ;
312 [label="gini = 0.0\nsamples = 2\nvalue = [0, 0, 2]\nclass = M", fillcolor="#8139e5"] ;
311 -> 312 ;
313 [label="Weight <= 10.929\ngini = 0.245\nsamples = 7\nvalue = [6, 1, 0]\nclass = F", fillcolor="#e9965a"] ;
311 -> 313 ;
314 [label="Age <= 7.5\ngini = 0.5\nsamples = 2\nvalue = [1, 1, 0]\nclass = F", fillcolor="#ffffff"] ;
313 -> 314 ;
315 [label="gini = 0.0\nsamples = 1\nvalue = [0, 1, 0]\nclass = I", fillcolor="#39e581"] ;
314 -> 315 ;
316 [label="gini = 0.0\nsamples = 1\nvalue = [1, 0, 0]\nclass = F", fillcolor="#e58139"] ;
314 -> 316 ;
317 [label="gini = 0.0\nsamples = 5\nvalue = [5, 0, 0]\nclass = F", fillcolor="#e58139"] ;
313 -> 317 ;
318 [label="Weight <= 18.115\ngini = 0.528\nsamples = 275\nvalue = [38, 174, 63]\nclass = I", fillcolor="#97f1bd"] ;
310 -> 318 ;
319 [label="Length <= 1.244\ngini = 0.503\nsamples = 239\nvalue = [32, 158, 49]\nclass = I", fillcolor="#8df0b7"] ;
318 -> 319 ;
320 [label="Diameter <= 0.956\ngini = 0.538\nsamples = 168\nvalue = [23, 104, 41]\nclass = I", fillcolor="#9df2c0"] ;
319 -> 320 ;
321 [label="Viscera Weight <= 3.948\ngini = 0.521\nsamples = 154\nvalue = [23, 99, 32]\nclass = I", fillcolor="#92f1ba"] ;
320 -> 321 ;
322 [label="Length <= 1.206\ngini = 0.504\nsamples = 148\nvalue = [22, 98, 28]\nclass = I", fillcolor="#8cf0b6"] ;
321 -> 322 ;
323 [label="Shell Weight <= 3.678\ngini = 0.539\nsamples = 119\nvalue = [18, 74, 27]\nclass = I", fillcolor="#9af2bf"] ;
322 -> 323 ;
324 [label="Length <= 1.156\ngini = 0.366\nsamples = 41\nvalue = [5, 32, 4]\nclass = I", fillcolor="#6aeca0"] ;
323 -> 324 ;
325 [label="Viscera Weight <= 3.537\ngini = 0.19\nsamples = 29\nvalue = [2, 26, 1]\nclass = I", fillcolor="#4fe88f"] ;
324 -> 325 ;
326 [label="Viscera Weight <= 3.076\ngini = 0.133\nsamples = 28\nvalue = [2, 26, 0]\nclass = I", fillcolor="#48e78b"] ;
325 -> 326 ;
327 [label="gini = 0.0\nsamples = 21\nvalue = [0, 21, 0]\nclass = I", fillcolor="#39e581"] ;
326 -> 327 ;
328 [label="Shucked Weight <= 6.003\ngini = 0.408\nsamples = 7\nvalue = [2, 5, 0]\nclass = I", fillcolor="#88efb3"] ;
326 -> 328 ;
329 [label="gini = 0.0\nsamples = 2\nvalue = [2, 0, 0]\nclass = F", fillcolor="#e58139"] ;
328 -> 329 ;
330 [label="gini = 0.0\nsamples = 5\nvalue = [0, 5, 0]\nclass = I", fillcolor="#39e581"] ;
328 -> 330 ;
331 [label="gini = 0.0\nsamples = 1\nvalue = [0, 0, 1]\nclass = M", fillcolor="#8139e5"] ;
325 -> 331 ;
332 [label="Shell Weight <= 3.296\ngini = 0.625\nsamples = 12\nvalue = [3, 6, 3]\nclass = I", fillcolor="#bdf6d5"] ;
324 -> 332 ;
333 [label="Viscera Weight <= 2.906\ngini = 0.444\nsamples = 3\nvalue = [1, 0, 2]\nclass = M", fillcolor="#c09cf2"] ;
332 -> 333 ;
334 [label="gini = 0.0\nsamples = 2\nvalue = [0, 0, 2]\nclass = M", fillcolor="#8139e5"] ;
333 -> 334 ;
335 [label="gini = 0.0\nsamples = 1\nvalue = [1, 0, 0]\nclass = F", fillcolor="#e58139"] ;
333 -> 335 ;
336 [label="Shell Weight <= 3.558\ngini = 0.494\nsamples = 9\nvalue = [2, 6, 1]\nclass = I", fillcolor="#8ef0b7"] ;
332 -> 336 ;
337 [label="Shell Weight <= 3.473\ngini = 0.278\nsamples = 6\nvalue = [0, 5, 1]\nclass = I", fillcolor="#61ea9a"] ;
336 -> 337 ;
338 [label="gini = 0.0\nsamples = 4\nvalue = [0, 4, 0]\nclass = I", fillcolor="#39e581"] ;
337 -> 338 ;
339 [label="Shucked Weight <= 6.123\ngini = 0.5\nsamples = 2\nvalue = [0, 1, 1]\nclass = I", fillcolor="#ffffff"] ;
337 -> 339 ;
340 [label="gini = 0.0\nsamples = 1\nvalue = [0, 1, 0]\nclass = I", fillcolor="#39e581"] ;
339 -> 340 ;
341 [label="gini = 0.0\nsamples = 1\nvalue = [0, 0, 1]\nclass = M", fillcolor="#8139e5"] ;
339 -> 341 ;
342 [label="Height <= 0.269\ngini = 0.444\nsamples = 3\nvalue = [2, 1, 0]\nclass = F", fillcolor="#f2c09c"] ;
336 -> 342 ;
343 [label="gini = 0.0\nsamples = 1\nvalue = [0, 1, 0]\nclass = I", fillcolor="#39e581"] ;
342 -> 343 ;
344 [label="gini = 0.0\nsamples = 2\nvalue = [2, 0, 0]\nclass = F", fillcolor="#e58139"] ;
342 -> 344 ;
345 [label="Weight <= 12.58\ngini = 0.595\nsamples = 78\nvalue = [13, 42, 23]\nclass = I", fillcolor="#bbf6d3"] ;
323 -> 345 ;
346 [label="Viscera Weight <= 2.757\ngini = 0.49\nsamples = 7\nvalue = [3, 0, 4]\nclass = M", fillcolor="#e0cef8"] ;
345 -> 346 ;
347 [label="gini = 0.0\nsamples = 3\nvalue = [0, 0, 3]\nclass = M", fillcolor="#8139e5"] ;
346 -> 347 ;
348 [label="Weight <= 11.779\ngini = 0.375\nsamples = 4\nvalue = [3, 0, 1]\nclass = F", fillcolor="#eeab7b"] ;
346 -> 348 ;
349 [label="gini = 0.0\nsamples = 1\nvalue = [0, 0, 1]\nclass = M", fillcolor="#8139e5"] ;
348 -> 349 ;
350 [label="gini = 0.0\nsamples = 3\nvalue = [3, 0, 0]\nclass = F", fillcolor="#e58139"] ;
348 -> 350 ;
351 [label="Height <= 0.319\ngini = 0.559\nsamples = 71\nvalue = [10, 42, 19]\nclass = I", fillcolor="#a7f4c7"] ;
345 -> 351 ;
352 [label="Length <= 1.181\ngini = 0.51\nsamples = 55\nvalue = [8, 36, 11]\nclass = I", fillcolor="#8ef0b7"] ;
351 -> 352 ;
353 [label="Viscera Weight <= 3.281\ngini = 0.594\nsamples = 38\nvalue = [8, 21, 9]\nclass = I", fillcolor="#adf4cb"] ;
352 -> 353 ;
354 [label="Shucked Weight <= 7.676\ngini = 0.541\nsamples = 31\nvalue = [4, 19, 8]\nclass = I", fillcolor="#a0f3c3"] ;
353 -> 354 ;
355 [label="Shell Weight <= 4.153\ngini = 0.509\nsamples = 29\nvalue = [4, 19, 6]\nclass = I", fillcolor="#8ff0b8"] ;
354 -> 355 ;
356 [label="Shucked Weight <= 5.897\ngini = 0.255\nsamples = 14\nvalue = [1, 12, 1]\nclass = I", fillcolor="#57e994"] ;
355 -> 356 ;
357 [label="Viscera Weight <= 3.083\ngini = 0.625\nsamples = 4\nvalue = [1, 2, 1]\nclass = I", fillcolor="#bdf6d5"] ;
356 -> 357 ;
358 [label="Shucked Weight <= 5.762\ngini = 0.444\nsamples = 3\nvalue = [1, 2, 0]\nclass = I", fillcolor="#9cf2c0"] ;
357 -> 358 ;
359 [label="gini = 0.0\nsamples = 2\nvalue = [0, 2, 0]\nclass = I", fillcolor="#39e581"] ;
358 -> 359 ;
360 [label="gini = 0.0\nsamples = 1\nvalue = [1, 0, 0]\nclass = F", fillcolor="#e58139"] ;
358 -> 360 ;
361 [label="gini = 0.0\nsamples = 1\nvalue = [0, 0, 1]\nclass = M", fillcolor="#8139e5"] ;
357 -> 361 ;
362 [label="gini = 0.0\nsamples = 10\nvalue = [0, 10, 0]\nclass = I", fillcolor="#39e581"] ;
356 -> 362 ;
363 [label="Weight <= 13.53\ngini = 0.631\nsamples = 15\nvalue = [3, 7, 5]\nclass = I", fillcolor="#d7fae6"] ;
355 -> 363 ;
364 [label="Diameter <= 0.906\ngini = 0.5\nsamples = 6\nvalue = [3, 3, 0]\nclass = F", fillcolor="#ffffff"] ;
363 -> 364 ;
365 [label="gini = 0.0\nsamples = 2\nvalue = [2, 0, 0]\nclass = F", fillcolor="#e58139"] ;
364 -> 365 ;
366 [label="Viscera Weight <= 3.04\ngini = 0.375\nsamples = 4\nvalue = [1, 3, 0]\nclass = I", fillcolor="#7beeab"] ;
364 -> 366 ;
367 [label="gini = 0.0\nsamples = 3\nvalue = [0, 3, 0]\nclass = I", fillcolor="#39e581"] ;
366 -> 367 ;
368 [label="gini = 0.0\nsamples = 1\nvalue = [1, 0, 0]\nclass = F", fillcolor="#e58139"] ;
366 -> 368 ;
369 [label="Length <= 1.169\ngini = 0.494\nsamples = 9\nvalue = [0, 4, 5]\nclass = M", fillcolor="#e6d7fa"] ;
363 -> 369 ;
370 [label="Shucked Weight <= 6.372\ngini = 0.32\nsamples = 5\nvalue = [0, 1, 4]\nclass = M", fillcolor="#a06aec"] ;
369 -> 370 ;
371 [label="gini = 0.0\nsamples = 4\nvalue = [0, 0, 4]\nclass = M", fillcolor="#8139e5"] ;
370 -> 371 ;
372 [label="gini = 0.0\nsamples = 1\nvalue = [0, 1, 0]\nclass = I", fillcolor="#39e581"] ;
370 -> 372 ;
373 [label="Weight <= 16.103\ngini = 0.375\nsamples = 4\nvalue = [0, 3, 1]\nclass = I", fillcolor="#7beeab"] ;
369 -> 373 ;
374 [label="gini = 0.0\nsamples = 3\nvalue = [0, 3, 0]\nclass = I", fillcolor="#39e581"] ;
373 -> 374 ;
375 [label="gini = 0.0\nsamples = 1\nvalue = [0, 0, 1]\nclass = M", fillcolor="#8139e5"] ;
373 -> 375 ;
376 [label="gini = 0.0\nsamples = 2\nvalue = [0, 0, 2]\nclass = M", fillcolor="#8139e5"] ;
354 -> 376 ;
377 [label="Height <= 0.294\ngini = 0.571\nsamples = 7\nvalue = [4, 2, 1]\nclass = F", fillcolor="#f5cdb0"] ;
353 -> 377 ;
378 [label="gini = 0.0\nsamples = 4\nvalue = [4, 0, 0]\nclass = F", fillcolor="#e58139"] ;
377 -> 378 ;
379 [label="Length <= 1.144\ngini = 0.444\nsamples = 3\nvalue = [0, 2, 1]\nclass = I", fillcolor="#9cf2c0"] ;
377 -> 379 ;
380 [label="gini = 0.0\nsamples = 2\nvalue = [0, 2, 0]\nclass = I", fillcolor="#39e581"] ;
379 -> 380 ;
381 [label="gini = 0.0\nsamples = 1\nvalue = [0, 0, 1]\nclass = M", fillcolor="#8139e5"] ;
379 -> 381 ;
382 [label="Height <= 0.256\ngini = 0.208\nsamples = 17\nvalue = [0, 15, 2]\nclass = I", fillcolor="#53e892"] ;
352 -> 382 ;
383 [label="gini = 0.0\nsamples = 1\nvalue = [0, 0, 1]\nclass = M", fillcolor="#8139e5"] ;
382 -> 383 ;
384 [label="Weight <= 13.757\ngini = 0.117\nsamples = 16\nvalue = [0, 15, 1]\nclass = I", fillcolor="#46e789"] ;
382 -> 384 ;
385 [label="Shell Weight <= 3.785\ngini = 0.375\nsamples = 4\nvalue = [0, 3, 1]\nclass = I", fillcolor="#7beeab"] ;
384 -> 385 ;
386 [label="gini = 0.0\nsamples = 3\nvalue = [0, 3, 0]\nclass = I", fillcolor="#39e581"] ;
385 -> 386 ;
387 [label="gini = 0.0\nsamples = 1\nvalue = [0, 0, 1]\nclass = M", fillcolor="#8139e5"] ;
385 -> 387 ;
388 [label="gini = 0.0\nsamples = 12\nvalue = [0, 12, 0]\nclass = I", fillcolor="#39e581"] ;
384 -> 388 ;
389 [label="Height <= 0.331\ngini = 0.594\nsamples = 16\nvalue = [2, 6, 8]\nclass = M", fillcolor="#e6d7fa"] ;
351 -> 389 ;
390 [label="Age <= 7.5\ngini = 0.278\nsamples = 6\nvalue = [0, 1, 5]\nclass = M", fillcolor="#9a61ea"] ;
389 -> 390 ;
391 [label="Shucked Weight <= 5.557\ngini = 0.5\nsamples = 2\nvalue = [0, 1, 1]\nclass = I", fillcolor="#ffffff"] ;
390 -> 391 ;
392 [label="gini = 0.0\nsamples = 1\nvalue = [0, 1, 0]\nclass = I", fillcolor="#39e581"] ;
391 -> 392 ;
393 [label="gini = 0.0\nsamples = 1\nvalue = [0, 0, 1]\nclass = M", fillcolor="#8139e5"] ;
391 -> 393 ;
394 [label="gini = 0.0\nsamples = 4\nvalue = [0, 0, 4]\nclass = M", fillcolor="#8139e5"] ;
390 -> 394 ;
395 [label="Shucked Weight <= 6.258\ngini = 0.62\nsamples = 10\nvalue = [2, 5, 3]\nclass = I", fillcolor="#c6f8db"] ;
389 -> 395 ;
396 [label="gini = 0.0\nsamples = 3\nvalue = [0, 3, 0]\nclass = I", fillcolor="#39e581"] ;
395 -> 396 ;
397 [label="Length <= 1.163\ngini = 0.653\nsamples = 7\nvalue = [2, 2, 3]\nclass = M", fillcolor="#e6d7fa"] ;
395 -> 397 ;
398 [label="gini = 0.0\nsamples = 2\nvalue = [2, 0, 0]\nclass = F", fillcolor="#e58139"] ;
397 -> 398 ;
399 [label="Weight <= 15.025\ngini = 0.48\nsamples = 5\nvalue = [0, 2, 3]\nclass = M", fillcolor="#d5bdf6"] ;
397 -> 399 ;
400 [label="gini = 0.0\nsamples = 2\nvalue = [0, 0, 2]\nclass = M", fillcolor="#8139e5"] ;
399 -> 400 ;
401 [label="Diameter <= 0.912\ngini = 0.444\nsamples = 3\nvalue = [0, 2, 1]\nclass = I", fillcolor="#9cf2c0"] ;
399 -> 401 ;
402 [label="gini = 0.0\nsamples = 2\nvalue = [0, 2, 0]\nclass = I", fillcolor="#39e581"] ;
401 -> 402 ;
403 [label="gini = 0.0\nsamples = 1\nvalue = [0, 0, 1]\nclass = M", fillcolor="#8139e5"] ;
401 -> 403 ;
404 [label="Age <= 7.5\ngini = 0.295\nsamples = 29\nvalue = [4, 24, 1]\nclass = I", fillcolor="#61ea9a"] ;
322 -> 404 ;
405 [label="Shucked Weight <= 6.825\ngini = 0.542\nsamples = 12\nvalue = [4, 7, 1]\nclass = I", fillcolor="#b5f5d0"] ;
404 -> 405 ;
406 [label="Shell Weight <= 3.671\ngini = 0.278\nsamples = 6\nvalue = [1, 5, 0]\nclass = I", fillcolor="#61ea9a"] ;
405 -> 406 ;
407 [label="gini = 0.0\nsamples = 1\nvalue = [1, 0, 0]\nclass = F", fillcolor="#e58139"] ;
406 -> 407 ;
408 [label="gini = 0.0\nsamples = 5\nvalue = [0, 5, 0]\nclass = I", fillcolor="#39e581"] ;
406 -> 408 ;
409 [label="Length <= 1.219\ngini = 0.611\nsamples = 6\nvalue = [3, 2, 1]\nclass = F", fillcolor="#f8e0ce"] ;
405 -> 409 ;
410 [label="Viscera Weight <= 3.31\ngini = 0.444\nsamples = 3\nvalue = [0, 2, 1]\nclass = I", fillcolor="#9cf2c0"] ;
409 -> 410 ;
411 [label="gini = 0.0\nsamples = 1\nvalue = [0, 0, 1]\nclass = M", fillcolor="#8139e5"] ;
410 -> 411 ;
412 [label="gini = 0.0\nsamples = 2\nvalue = [0, 2, 0]\nclass = I", fillcolor="#39e581"] ;
410 -> 412 ;
413 [label="gini = 0.0\nsamples = 3\nvalue = [3, 0, 0]\nclass = F", fillcolor="#e58139"] ;
409 -> 413 ;
414 [label="gini = 0.0\nsamples = 17\nvalue = [0, 17, 0]\nclass = I", fillcolor="#39e581"] ;
404 -> 414 ;
415 [label="Diameter <= 0.887\ngini = 0.5\nsamples = 6\nvalue = [1, 1, 4]\nclass = M", fillcolor="#b388ef"] ;
321 -> 415 ;
416 [label="gini = 0.0\nsamples = 1\nvalue = [0, 1, 0]\nclass = I", fillcolor="#39e581"] ;
415 -> 416 ;
417 [label="Shell Weight <= 4.819\ngini = 0.32\nsamples = 5\nvalue = [1, 0, 4]\nclass = M", fillcolor="#a06aec"] ;
415 -> 417 ;
418 [label="gini = 0.0\nsamples = 3\nvalue = [0, 0, 3]\nclass = M", fillcolor="#8139e5"] ;
417 -> 418 ;
419 [label="Weight <= 16.932\ngini = 0.5\nsamples = 2\nvalue = [1, 0, 1]\nclass = F", fillcolor="#ffffff"] ;
417 -> 419 ;
420 [label="gini = 0.0\nsamples = 1\nvalue = [0, 0, 1]\nclass = M", fillcolor="#8139e5"] ;
419 -> 420 ;
421 [label="gini = 0.0\nsamples = 1\nvalue = [1, 0, 0]\nclass = F", fillcolor="#e58139"] ;
419 -> 421 ;
422 [label="Height <= 0.344\ngini = 0.459\nsamples = 14\nvalue = [0, 5, 9]\nclass = M", fillcolor="#c7a7f3"] ;
320 -> 422 ;
423 [label="Viscera Weight <= 3.657\ngini = 0.375\nsamples = 12\nvalue = [0, 3, 9]\nclass = M", fillcolor="#ab7bee"] ;
422 -> 423 ;
424 [label="Shell Weight <= 4.805\ngini = 0.5\nsamples = 6\nvalue = [0, 3, 3]\nclass = I", fillcolor="#ffffff"] ;
423 -> 424 ;
425 [label="Weight <= 16.01\ngini = 0.375\nsamples = 4\nvalue = [0, 3, 1]\nclass = I", fillcolor="#7beeab"] ;
424 -> 425 ;
426 [label="gini = 0.0\nsamples = 1\nvalue = [0, 0, 1]\nclass = M", fillcolor="#8139e5"] ;
425 -> 426 ;
427 [label="gini = 0.0\nsamples = 3\nvalue = [0, 3, 0]\nclass = I", fillcolor="#39e581"] ;
425 -> 427 ;
428 [label="gini = 0.0\nsamples = 2\nvalue = [0, 0, 2]\nclass = M", fillcolor="#8139e5"] ;
424 -> 428 ;
429 [label="gini = 0.0\nsamples = 6\nvalue = [0, 0, 6]\nclass = M", fillcolor="#8139e5"] ;
423 -> 429 ;
430 [label="gini = 0.0\nsamples = 2\nvalue = [0, 2, 0]\nclass = I", fillcolor="#39e581"] ;
422 -> 430 ;
431 [label="Shell Weight <= 4.267\ngini = 0.393\nsamples = 71\nvalue = [9, 54, 8]\nclass = I", fillcolor="#6feca4"] ;
319 -> 431 ;
432 [label="Viscera Weight <= 2.856\ngini = 0.637\nsamples = 17\nvalue = [4, 8, 5]\nclass = I", fillcolor="#cef8e0"] ;
431 -> 432 ;
433 [label="gini = 0.0\nsamples = 2\nvalue = [0, 0, 2]\nclass = M", fillcolor="#8139e5"] ;
432 -> 433 ;
434 [label="Viscera Weight <= 3.239\ngini = 0.604\nsamples = 15\nvalue = [4, 8, 3]\nclass = I", fillcolor="#b7f6d1"] ;
432 -> 434 ;
435 [label="gini = 0.0\nsamples = 5\nvalue = [0, 5, 0]\nclass = I", fillcolor="#39e581"] ;
434 -> 435 ;
436 [label="Shucked Weight <= 7.222\ngini = 0.66\nsamples = 10\nvalue = [4, 3, 3]\nclass = F", fillcolor="#fbede3"] ;
434 -> 436 ;
437 [label="gini = 0.0\nsamples = 2\nvalue = [0, 0, 2]\nclass = M", fillcolor="#8139e5"] ;
436 -> 437 ;
438 [label="Weight <= 16.719\ngini = 0.594\nsamples = 8\nvalue = [4, 3, 1]\nclass = F", fillcolor="#fae6d7"] ;
436 -> 438 ;
439 [label="gini = 0.0\nsamples = 3\nvalue = [3, 0, 0]\nclass = F", fillcolor="#e58139"] ;
438 -> 439 ;
440 [label="Diameter <= 0.95\ngini = 0.56\nsamples = 5\nvalue = [1, 3, 1]\nclass = I", fillcolor="#9cf2c0"] ;
438 -> 440 ;
441 [label="gini = 0.0\nsamples = 1\nvalue = [1, 0, 0]\nclass = F", fillcolor="#e58139"] ;
440 -> 441 ;
442 [label="Weight <= 17.35\ngini = 0.375\nsamples = 4\nvalue = [0, 3, 1]\nclass = I", fillcolor="#7beeab"] ;
440 -> 442 ;
443 [label="gini = 0.0\nsamples = 3\nvalue = [0, 3, 0]\nclass = I", fillcolor="#39e581"] ;
442 -> 443 ;
444 [label="gini = 0.0\nsamples = 1\nvalue = [0, 0, 1]\nclass = M", fillcolor="#8139e5"] ;
442 -> 444 ;
445 [label="Weight <= 17.747\ngini = 0.263\nsamples = 54\nvalue = [5, 46, 3]\nclass = I", fillcolor="#59e996"] ;
431 -> 445 ;
446 [label="Diameter <= 0.994\ngini = 0.218\nsamples = 50\nvalue = [3, 44, 3]\nclass = I", fillcolor="#52e891"] ;
445 -> 446 ;
447 [label="Shucked Weight <= 6.301\ngini = 0.112\nsamples = 34\nvalue = [1, 32, 1]\nclass = I", fillcolor="#45e789"] ;
446 -> 447 ;
448 [label="Shell Weight <= 4.763\ngini = 0.444\nsamples = 3\nvalue = [1, 2, 0]\nclass = I", fillcolor="#9cf2c0"] ;
447 -> 448 ;
449 [label="gini = 0.0\nsamples = 2\nvalue = [0, 2, 0]\nclass = I", fillcolor="#39e581"] ;
448 -> 449 ;
450 [label="gini = 0.0\nsamples = 1\nvalue = [1, 0, 0]\nclass = F", fillcolor="#e58139"] ;
448 -> 450 ;
451 [label="Shell Weight <= 4.38\ngini = 0.062\nsamples = 31\nvalue = [0, 30, 1]\nclass = I", fillcolor="#40e685"] ;
447 -> 451 ;
452 [label="Diameter <= 0.969\ngini = 0.375\nsamples = 4\nvalue = [0, 3, 1]\nclass = I", fillcolor="#7beeab"] ;
451 -> 452 ;
453 [label="gini = 0.0\nsamples = 3\nvalue = [0, 3, 0]\nclass = I", fillcolor="#39e581"] ;
452 -> 453 ;
454 [label="gini = 0.0\nsamples = 1\nvalue = [0, 0, 1]\nclass = M", fillcolor="#8139e5"] ;
452 -> 454 ;
455 [label="gini = 0.0\nsamples = 27\nvalue = [0, 27, 0]\nclass = I", fillcolor="#39e581"] ;
451 -> 455 ;
456 [label="Shucked Weight <= 6.747\ngini = 0.406\nsamples = 16\nvalue = [2, 12, 2]\nclass = I", fillcolor="#72eca5"] ;
446 -> 456 ;
457 [label="Viscera Weight <= 3.898\ngini = 0.444\nsamples = 3\nvalue = [0, 1, 2]\nclass = M", fillcolor="#c09cf2"] ;
456 -> 457 ;
458 [label="gini = 0.0\nsamples = 2\nvalue = [0, 0, 2]\nclass = M", fillcolor="#8139e5"] ;
457 -> 458 ;
459 [label="gini = 0.0\nsamples = 1\nvalue = [0, 1, 0]\nclass = I", fillcolor="#39e581"] ;
457 -> 459 ;
460 [label="Shell Weight <= 5.011\ngini = 0.26\nsamples = 13\nvalue = [2, 11, 0]\nclass = I", fillcolor="#5dea98"] ;
456 -> 460 ;
461 [label="Length <= 1.294\ngini = 0.48\nsamples = 5\nvalue = [2, 3, 0]\nclass = I", fillcolor="#bdf6d5"] ;
460 -> 461 ;
462 [label="Weight <= 16.237\ngini = 0.444\nsamples = 3\nvalue = [2, 1, 0]\nclass = F", fillcolor="#f2c09c"] ;
461 -> 462 ;
463 [label="gini = 0.0\nsamples = 1\nvalue = [0, 1, 0]\nclass = I", fillcolor="#39e581"] ;
462 -> 463 ;
464 [label="gini = 0.0\nsamples = 2\nvalue = [2, 0, 0]\nclass = F", fillcolor="#e58139"] ;
462 -> 464 ;
465 [label="gini = 0.0\nsamples = 2\nvalue = [0, 2, 0]\nclass = I", fillcolor="#39e581"] ;
461 -> 465 ;
466 [label="gini = 0.0\nsamples = 8\nvalue = [0, 8, 0]\nclass = I", fillcolor="#39e581"] ;
460 -> 466 ;
467 [label="Weight <= 18.023\ngini = 0.5\nsamples = 4\nvalue = [2, 2, 0]\nclass = F", fillcolor="#ffffff"] ;
445 -> 467 ;
468 [label="gini = 0.0\nsamples = 2\nvalue = [2, 0, 0]\nclass = F", fillcolor="#e58139"] ;
467 -> 468 ;
469 [label="gini = 0.0\nsamples = 2\nvalue = [0, 2, 0]\nclass = I", fillcolor="#39e581"] ;
467 -> 469 ;
470 [label="Length <= 1.256\ngini = 0.623\nsamples = 36\nvalue = [6, 16, 14]\nclass = I", fillcolor="#edfdf4"] ;
318 -> 470 ;
471 [label="Diameter <= 0.919\ngini = 0.486\nsamples = 12\nvalue = [3, 1, 8]\nclass = M", fillcolor="#b991f1"] ;
470 -> 471 ;
472 [label="Shell Weight <= 5.032\ngini = 0.444\nsamples = 3\nvalue = [2, 1, 0]\nclass = F", fillcolor="#f2c09c"] ;
471 -> 472 ;
473 [label="gini = 0.0\nsamples = 2\nvalue = [2, 0, 0]\nclass = F", fillcolor="#e58139"] ;
472 -> 473 ;
474 [label="gini = 0.0\nsamples = 1\nvalue = [0, 1, 0]\nclass = I", fillcolor="#39e581"] ;
472 -> 474 ;
475 [label="Length <= 1.194\ngini = 0.198\nsamples = 9\nvalue = [1, 0, 8]\nclass = M", fillcolor="#9152e8"] ;
471 -> 475 ;
476 [label="Weight <= 18.966\ngini = 0.5\nsamples = 2\nvalue = [1, 0, 1]\nclass = F", fillcolor="#ffffff"] ;
475 -> 476 ;
477 [label="gini = 0.0\nsamples = 1\nvalue = [0, 0, 1]\nclass = M", fillcolor="#8139e5"] ;
476 -> 477 ;
478 [label="gini = 0.0\nsamples = 1\nvalue = [1, 0, 0]\nclass = F", fillcolor="#e58139"] ;
476 -> 478 ;
479 [label="gini = 0.0\nsamples = 7\nvalue = [0, 0, 7]\nclass = M", fillcolor="#8139e5"] ;
475 -> 479 ;
480 [label="Length <= 1.444\ngini = 0.531\nsamples = 24\nvalue = [3, 15, 6]\nclass = I", fillcolor="#9cf2c0"] ;
470 -> 480 ;
481 [label="Shell Weight <= 4.408\ngini = 0.459\nsamples = 22\nvalue = [1, 15, 6]\nclass = I", fillcolor="#90f0b8"] ;
480 -> 481 ;
482 [label="Length <= 1.275\ngini = 0.444\nsamples = 3\nvalue = [1, 0, 2]\nclass = M", fillcolor="#c09cf2"] ;
481 -> 482 ;
483 [label="gini = 0.0\nsamples = 1\nvalue = [1, 0, 0]\nclass = F", fillcolor="#e58139"] ;
482 -> 483 ;
484 [label="gini = 0.0\nsamples = 2\nvalue = [0, 0, 2]\nclass = M", fillcolor="#8139e5"] ;
482 -> 484 ;
485 [label="Height <= 0.369\ngini = 0.332\nsamples = 19\nvalue = [0, 15, 4]\nclass = I", fillcolor="#6eeca3"] ;
481 -> 485 ;
486 [label="Viscera Weight <= 3.997\ngini = 0.219\nsamples = 16\nvalue = [0, 14, 2]\nclass = I", fillcolor="#55e993"] ;
485 -> 486 ;
487 [label="gini = 0.0\nsamples = 10\nvalue = [0, 10, 0]\nclass = I", fillcolor="#39e581"] ;
486 -> 487 ;
488 [label="Age <= 6.5\ngini = 0.444\nsamples = 6\nvalue = [0, 4, 2]\nclass = I", fillcolor="#9cf2c0"] ;
486 -> 488 ;
489 [label="gini = 0.0\nsamples = 1\nvalue = [0, 0, 1]\nclass = M", fillcolor="#8139e5"] ;
488 -> 489 ;
490 [label="Height <= 0.331\ngini = 0.32\nsamples = 5\nvalue = [0, 4, 1]\nclass = I", fillcolor="#6aeca0"] ;
488 -> 490 ;
491 [label="Diameter <= 1.031\ngini = 0.5\nsamples = 2\nvalue = [0, 1, 1]\nclass = I", fillcolor="#ffffff"] ;
490 -> 491 ;
492 [label="gini = 0.0\nsamples = 1\nvalue = [0, 0, 1]\nclass = M", fillcolor="#8139e5"] ;
491 -> 492 ;
493 [label="gini = 0.0\nsamples = 1\nvalue = [0, 1, 0]\nclass = I", fillcolor="#39e581"] ;
491 -> 493 ;
494 [label="gini = 0.0\nsamples = 3\nvalue = [0, 3, 0]\nclass = I", fillcolor="#39e581"] ;
490 -> 494 ;
495 [label="Viscera Weight <= 3.756\ngini = 0.444\nsamples = 3\nvalue = [0, 1, 2]\nclass = M", fillcolor="#c09cf2"] ;
485 -> 495 ;
496 [label="gini = 0.0\nsamples = 1\nvalue = [0, 1, 0]\nclass = I", fillcolor="#39e581"] ;
495 -> 496 ;
497 [label="gini = 0.0\nsamples = 2\nvalue = [0, 0, 2]\nclass = M", fillcolor="#8139e5"] ;
495 -> 497 ;
498 [label="gini = 0.0\nsamples = 2\nvalue = [2, 0, 0]\nclass = F", fillcolor="#e58139"] ;
480 -> 498 ;
499 [label="Age <= 9.5\ngini = 0.666\nsamples = 567\nvalue = [175, 198, 194]\nclass = I", fillcolor="#fdfffe"] ;
1 -> 499 ;
500 [label="Length <= 1.131\ngini = 0.622\nsamples = 214\nvalue = [40, 104, 70]\nclass = I", fillcolor="#d0f9e1"] ;
499 -> 500 ;
501 [label="Viscera Weight <= 3.048\ngini = 0.634\nsamples = 90\nvalue = [18, 31, 41]\nclass = M", fillcolor="#eaddfb"] ;
500 -> 501 ;
502 [label="Height <= 0.319\ngini = 0.616\nsamples = 86\nvalue = [14, 31, 41]\nclass = M", fillcolor="#e8dbfa"] ;
501 -> 502 ;
503 [label="Viscera Weight <= 2.516\ngini = 0.624\nsamples = 82\nvalue = [14, 31, 37]\nclass = M", fillcolor="#f0e8fc"] ;
502 -> 503 ;
504 [label="Viscera Weight <= 2.41\ngini = 0.585\nsamples = 64\nvalue = [7, 25, 32]\nclass = M", fillcolor="#e8dbfa"] ;
503 -> 504 ;
505 [label="Viscera Weight <= 2.197\ngini = 0.595\nsamples = 60\nvalue = [7, 25, 28]\nclass = M", fillcolor="#f4eefd"] ;
504 -> 505 ;
506 [label="Shell Weight <= 1.616\ngini = 0.595\nsamples = 53\nvalue = [7, 19, 27]\nclass = M", fillcolor="#e1d0f9"] ;
505 -> 506 ;
507 [label="Shucked Weight <= 1.368\ngini = 0.408\nsamples = 7\nvalue = [0, 5, 2]\nclass = I", fillcolor="#88efb3"] ;
506 -> 507 ;
508 [label="gini = 0.0\nsamples = 2\nvalue = [0, 0, 2]\nclass = M", fillcolor="#8139e5"] ;
507 -> 508 ;
509 [label="gini = 0.0\nsamples = 5\nvalue = [0, 5, 0]\nclass = I", fillcolor="#39e581"] ;
507 -> 509 ;
510 [label="Height <= 0.256\ngini = 0.589\nsamples = 46\nvalue = [7, 14, 25]\nclass = M", fillcolor="#d4bbf6"] ;
506 -> 510 ;
511 [label="Length <= 0.806\ngini = 0.462\nsamples = 26\nvalue = [2, 6, 18]\nclass = M", fillcolor="#b388ef"] ;
510 -> 511 ;
512 [label="gini = 0.0\nsamples = 1\nvalue = [0, 1, 0]\nclass = I", fillcolor="#39e581"] ;
511 -> 512 ;
513 [label="Length <= 0.887\ngini = 0.435\nsamples = 25\nvalue = [2, 5, 18]\nclass = M", fillcolor="#ad7eee"] ;
511 -> 513 ;
514 [label="Viscera Weight <= 1.354\ngini = 0.32\nsamples = 10\nvalue = [2, 0, 8]\nclass = M", fillcolor="#a06aec"] ;
513 -> 514 ;
515 [label="gini = 0.0\nsamples = 7\nvalue = [0, 0, 7]\nclass = M", fillcolor="#8139e5"] ;
514 -> 515 ;
516 [label="Diameter <= 0.662\ngini = 0.444\nsamples = 3\nvalue = [2, 0, 1]\nclass = F", fillcolor="#f2c09c"] ;
514 -> 516 ;
517 [label="gini = 0.0\nsamples = 2\nvalue = [2, 0, 0]\nclass = F", fillcolor="#e58139"] ;
516 -> 517 ;
518 [label="gini = 0.0\nsamples = 1\nvalue = [0, 0, 1]\nclass = M", fillcolor="#8139e5"] ;
516 -> 518 ;
519 [label="Shell Weight <= 2.339\ngini = 0.444\nsamples = 15\nvalue = [0, 5, 10]\nclass = M", fillcolor="#c09cf2"] ;
513 -> 519 ;
520 [label="Viscera Weight <= 1.517\ngini = 0.444\nsamples = 6\nvalue = [0, 4, 2]\nclass = I", fillcolor="#9cf2c0"] ;
519 -> 520 ;
521 [label="Diameter <= 0.7\ngini = 0.444\nsamples = 3\nvalue = [0, 1, 2]\nclass = M", fillcolor="#c09cf2"] ;
520 -> 521 ;
522 [label="gini = 0.0\nsamples = 1\nvalue = [0, 1, 0]\nclass = I", fillcolor="#39e581"] ;
521 -> 522 ;
523 [label="gini = 0.0\nsamples = 2\nvalue = [0, 0, 2]\nclass = M", fillcolor="#8139e5"] ;
521 -> 523 ;
524 [label="gini = 0.0\nsamples = 3\nvalue = [0, 3, 0]\nclass = I", fillcolor="#39e581"] ;
520 -> 524 ;
525 [label="Height <= 0.212\ngini = 0.198\nsamples = 9\nvalue = [0, 1, 8]\nclass = M", fillcolor="#9152e8"] ;
519 -> 525 ;
526 [label="gini = 0.0\nsamples = 1\nvalue = [0, 1, 0]\nclass = I", fillcolor="#39e581"] ;
525 -> 526 ;
527 [label="gini = 0.0\nsamples = 8\nvalue = [0, 0, 8]\nclass = M", fillcolor="#8139e5"] ;
525 -> 527 ;
528 [label="Length <= 0.919\ngini = 0.655\nsamples = 20\nvalue = [5, 8, 7]\nclass = I", fillcolor="#f0fdf5"] ;
510 -> 528 ;
529 [label="gini = 0.0\nsamples = 4\nvalue = [0, 4, 0]\nclass = I", fillcolor="#39e581"] ;
528 -> 529 ;
530 [label="Viscera Weight <= 1.878\ngini = 0.648\nsamples = 16\nvalue = [5, 4, 7]\nclass = M", fillcolor="#e8dbfa"] ;
528 -> 530 ;
531 [label="Viscera Weight <= 1.814\ngini = 0.48\nsamples = 10\nvalue = [4, 0, 6]\nclass = M", fillcolor="#d5bdf6"] ;
530 -> 531 ;
532 [label="Shucked Weight <= 3.983\ngini = 0.49\nsamples = 7\nvalue = [4, 0, 3]\nclass = F", fillcolor="#f8e0ce"] ;
531 -> 532 ;
533 [label="Weight <= 7.789\ngini = 0.48\nsamples = 5\nvalue = [2, 0, 3]\nclass = M", fillcolor="#d5bdf6"] ;
532 -> 533 ;
534 [label="Shucked Weight <= 2.856\ngini = 0.444\nsamples = 3\nvalue = [2, 0, 1]\nclass = F", fillcolor="#f2c09c"] ;
533 -> 534 ;
535 [label="gini = 0.0\nsamples = 1\nvalue = [0, 0, 1]\nclass = M", fillcolor="#8139e5"] ;
534 -> 535 ;
536 [label="gini = 0.0\nsamples = 2\nvalue = [2, 0, 0]\nclass = F", fillcolor="#e58139"] ;
534 -> 536 ;
537 [label="gini = 0.0\nsamples = 2\nvalue = [0, 0, 2]\nclass = M", fillcolor="#8139e5"] ;
533 -> 537 ;
538 [label="gini = 0.0\nsamples = 2\nvalue = [2, 0, 0]\nclass = F", fillcolor="#e58139"] ;
532 -> 538 ;
539 [label="gini = 0.0\nsamples = 3\nvalue = [0, 0, 3]\nclass = M", fillcolor="#8139e5"] ;
531 -> 539 ;
540 [label="Shell Weight <= 3.26\ngini = 0.5\nsamples = 6\nvalue = [1, 4, 1]\nclass = I", fillcolor="#88efb3"] ;
530 -> 540 ;
541 [label="gini = 0.0\nsamples = 1\nvalue = [1, 0, 0]\nclass = F", fillcolor="#e58139"] ;
540 -> 541 ;
542 [label="Length <= 1.119\ngini = 0.32\nsamples = 5\nvalue = [0, 4, 1]\nclass = I", fillcolor="#6aeca0"] ;
540 -> 542 ;
543 [label="gini = 0.0\nsamples = 4\nvalue = [0, 4, 0]\nclass = I", fillcolor="#39e581"] ;
542 -> 543 ;
544 [label="gini = 0.0\nsamples = 1\nvalue = [0, 0, 1]\nclass = M", fillcolor="#8139e5"] ;
542 -> 544 ;
545 [label="Shell Weight <= 4.77\ngini = 0.245\nsamples = 7\nvalue = [0, 6, 1]\nclass = I", fillcolor="#5ae996"] ;
505 -> 545 ;
546 [label="gini = 0.0\nsamples = 6\nvalue = [0, 6, 0]\nclass = I", fillcolor="#39e581"] ;
545 -> 546 ;
547 [label="gini = 0.0\nsamples = 1\nvalue = [0, 0, 1]\nclass = M", fillcolor="#8139e5"] ;
545 -> 547 ;
548 [label="gini = 0.0\nsamples = 4\nvalue = [0, 0, 4]\nclass = M", fillcolor="#8139e5"] ;
504 -> 548 ;
549 [label="Height <= 0.269\ngini = 0.66\nsamples = 18\nvalue = [7, 6, 5]\nclass = F", fillcolor="#fdf4ee"] ;
503 -> 549 ;
550 [label="Viscera Weight <= 2.53\ngini = 0.494\nsamples = 9\nvalue = [6, 2, 1]\nclass = F", fillcolor="#f0b78e"] ;
549 -> 550 ;
551 [label="Shucked Weight <= 4.55\ngini = 0.444\nsamples = 3\nvalue = [1, 2, 0]\nclass = I", fillcolor="#9cf2c0"] ;
550 -> 551 ;
552 [label="gini = 0.0\nsamples = 1\nvalue = [1, 0, 0]\nclass = F", fillcolor="#e58139"] ;
551 -> 552 ;
553 [label="gini = 0.0\nsamples = 2\nvalue = [0, 2, 0]\nclass = I", fillcolor="#39e581"] ;
551 -> 553 ;
554 [label="Shell Weight <= 3.756\ngini = 0.278\nsamples = 6\nvalue = [5, 0, 1]\nclass = F", fillcolor="#ea9a61"] ;
550 -> 554 ;
555 [label="gini = 0.0\nsamples = 4\nvalue = [4, 0, 0]\nclass = F", fillcolor="#e58139"] ;
554 -> 555 ;
556 [label="Shucked Weight <= 5.372\ngini = 0.5\nsamples = 2\nvalue = [1, 0, 1]\nclass = F", fillcolor="#ffffff"] ;
554 -> 556 ;
557 [label="gini = 0.0\nsamples = 1\nvalue = [0, 0, 1]\nclass = M", fillcolor="#8139e5"] ;
556 -> 557 ;
558 [label="gini = 0.0\nsamples = 1\nvalue = [1, 0, 0]\nclass = F", fillcolor="#e58139"] ;
556 -> 558 ;
559 [label="Shell Weight <= 3.296\ngini = 0.593\nsamples = 9\nvalue = [1, 4, 4]\nclass = I", fillcolor="#ffffff"] ;
549 -> 559 ;
560 [label="Shell Weight <= 3.048\ngini = 0.32\nsamples = 5\nvalue = [0, 4, 1]\nclass = I", fillcolor="#6aeca0"] ;
559 -> 560 ;
561 [label="gini = 0.0\nsamples = 1\nvalue = [0, 0, 1]\nclass = M", fillcolor="#8139e5"] ;
560 -> 561 ;
562 [label="gini = 0.0\nsamples = 4\nvalue = [0, 4, 0]\nclass = I", fillcolor="#39e581"] ;
560 -> 562 ;
563 [label="Length <= 1.119\ngini = 0.375\nsamples = 4\nvalue = [1, 0, 3]\nclass = M", fillcolor="#ab7bee"] ;
559 -> 563 ;
564 [label="gini = 0.0\nsamples = 3\nvalue = [0, 0, 3]\nclass = M", fillcolor="#8139e5"] ;
563 -> 564 ;
565 [label="gini = 0.0\nsamples = 1\nvalue = [1, 0, 0]\nclass = F", fillcolor="#e58139"] ;
563 -> 565 ;
566 [label="gini = 0.0\nsamples = 4\nvalue = [0, 0, 4]\nclass = M", fillcolor="#8139e5"] ;
502 -> 566 ;
567 [label="gini = 0.0\nsamples = 4\nvalue = [4, 0, 0]\nclass = F", fillcolor="#e58139"] ;
501 -> 567 ;
568 [label="Viscera Weight <= 3.487\ngini = 0.567\nsamples = 124\nvalue = [22, 73, 29]\nclass = I", fillcolor="#a3f3c5"] ;
500 -> 568 ;
569 [label="Length <= 1.194\ngini = 0.432\nsamples = 66\nvalue = [7, 48, 11]\nclass = I", fillcolor="#7aeeaa"] ;
568 -> 569 ;
570 [label="Shell Weight <= 4.919\ngini = 0.58\nsamples = 34\nvalue = [5, 19, 10]\nclass = I", fillcolor="#b5f5d0"] ;
569 -> 570 ;
571 [label="Viscera Weight <= 2.877\ngini = 0.511\nsamples = 29\nvalue = [5, 19, 5]\nclass = I", fillcolor="#8cf0b6"] ;
570 -> 571 ;
572 [label="Shucked Weight <= 4.912\ngini = 0.32\nsamples = 16\nvalue = [2, 13, 1]\nclass = I", fillcolor="#63eb9c"] ;
571 -> 572 ;
573 [label="Length <= 1.144\ngini = 0.571\nsamples = 7\nvalue = [2, 4, 1]\nclass = I", fillcolor="#b0f5cd"] ;
572 -> 573 ;
574 [label="gini = 0.0\nsamples = 1\nvalue = [0, 0, 1]\nclass = M", fillcolor="#8139e5"] ;
573 -> 574 ;
575 [label="Length <= 1.156\ngini = 0.444\nsamples = 6\nvalue = [2, 4, 0]\nclass = I", fillcolor="#9cf2c0"] ;
573 -> 575 ;
576 [label="gini = 0.0\nsamples = 3\nvalue = [0, 3, 0]\nclass = I", fillcolor="#39e581"] ;
575 -> 576 ;
577 [label="Weight <= 11.744\ngini = 0.444\nsamples = 3\nvalue = [2, 1, 0]\nclass = F", fillcolor="#f2c09c"] ;
575 -> 577 ;
578 [label="gini = 0.0\nsamples = 1\nvalue = [0, 1, 0]\nclass = I", fillcolor="#39e581"] ;
577 -> 578 ;
579 [label="gini = 0.0\nsamples = 2\nvalue = [2, 0, 0]\nclass = F", fillcolor="#e58139"] ;
577 -> 579 ;
580 [label="gini = 0.0\nsamples = 9\nvalue = [0, 9, 0]\nclass = I", fillcolor="#39e581"] ;
572 -> 580 ;
581 [label="Viscera Weight <= 2.984\ngini = 0.639\nsamples = 13\nvalue = [3, 6, 4]\nclass = I", fillcolor="#d3f9e3"] ;
571 -> 581 ;
582 [label="Shucked Weight <= 5.783\ngini = 0.444\nsamples = 3\nvalue = [2, 0, 1]\nclass = F", fillcolor="#f2c09c"] ;
581 -> 582 ;
583 [label="gini = 0.0\nsamples = 2\nvalue = [2, 0, 0]\nclass = F", fillcolor="#e58139"] ;
582 -> 583 ;
584 [label="gini = 0.0\nsamples = 1\nvalue = [0, 0, 1]\nclass = M", fillcolor="#8139e5"] ;
582 -> 584 ;
585 [label="Length <= 1.181\ngini = 0.54\nsamples = 10\nvalue = [1, 6, 3]\nclass = I", fillcolor="#aaf4c9"] ;
581 -> 585 ;
586 [label="Diameter <= 0.894\ngini = 0.32\nsamples = 5\nvalue = [1, 4, 0]\nclass = I", fillcolor="#6aeca0"] ;
585 -> 586 ;
587 [label="Shell Weight <= 3.983\ngini = 0.5\nsamples = 2\nvalue = [1, 1, 0]\nclass = F", fillcolor="#ffffff"] ;
586 -> 587 ;
588 [label="gini = 0.0\nsamples = 1\nvalue = [0, 1, 0]\nclass = I", fillcolor="#39e581"] ;
587 -> 588 ;
589 [label="gini = 0.0\nsamples = 1\nvalue = [1, 0, 0]\nclass = F", fillcolor="#e58139"] ;
587 -> 589 ;
590 [label="gini = 0.0\nsamples = 3\nvalue = [0, 3, 0]\nclass = I", fillcolor="#39e581"] ;
586 -> 590 ;
591 [label="Diameter <= 0.919\ngini = 0.48\nsamples = 5\nvalue = [0, 2, 3]\nclass = M", fillcolor="#d5bdf6"] ;
585 -> 591 ;
592 [label="Viscera Weight <= 3.083\ngini = 0.444\nsamples = 3\nvalue = [0, 2, 1]\nclass = I", fillcolor="#9cf2c0"] ;
591 -> 592 ;
593 [label="gini = 0.0\nsamples = 1\nvalue = [0, 0, 1]\nclass = M", fillcolor="#8139e5"] ;
592 -> 593 ;
594 [label="gini = 0.0\nsamples = 2\nvalue = [0, 2, 0]\nclass = I", fillcolor="#39e581"] ;
592 -> 594 ;
595 [label="gini = 0.0\nsamples = 2\nvalue = [0, 0, 2]\nclass = M", fillcolor="#8139e5"] ;
591 -> 595 ;
596 [label="gini = 0.0\nsamples = 5\nvalue = [0, 0, 5]\nclass = M", fillcolor="#8139e5"] ;
570 -> 596 ;
597 [label="Shucked Weight <= 4.968\ngini = 0.174\nsamples = 32\nvalue = [2, 29, 1]\nclass = I", fillcolor="#4de88e"] ;
569 -> 597 ;
598 [label="gini = 0.0\nsamples = 1\nvalue = [1, 0, 0]\nclass = F", fillcolor="#e58139"] ;
597 -> 598 ;
599 [label="Height <= 0.256\ngini = 0.123\nsamples = 31\nvalue = [1, 29, 1]\nclass = I", fillcolor="#46e789"] ;
597 -> 599 ;
600 [label="gini = 0.0\nsamples = 1\nvalue = [1, 0, 0]\nclass = F", fillcolor="#e58139"] ;
599 -> 600 ;
601 [label="Shucked Weight <= 8.71\ngini = 0.064\nsamples = 30\nvalue = [0, 29, 1]\nclass = I", fillcolor="#40e685"] ;
599 -> 601 ;
602 [label="gini = 0.0\nsamples = 26\nvalue = [0, 26, 0]\nclass = I", fillcolor="#39e581"] ;
601 -> 602 ;
603 [label="Diameter <= 0.975\ngini = 0.375\nsamples = 4\nvalue = [0, 3, 1]\nclass = I", fillcolor="#7beeab"] ;
601 -> 603 ;
604 [label="gini = 0.0\nsamples = 1\nvalue = [0, 0, 1]\nclass = M", fillcolor="#8139e5"] ;
603 -> 604 ;
605 [label="gini = 0.0\nsamples = 3\nvalue = [0, 3, 0]\nclass = I", fillcolor="#39e581"] ;
603 -> 605 ;
606 [label="Length <= 1.281\ngini = 0.651\nsamples = 58\nvalue = [15, 25, 18]\nclass = I", fillcolor="#dcfae9"] ;
568 -> 606 ;
607 [label="Shucked Weight <= 6.783\ngini = 0.601\nsamples = 24\nvalue = [6, 5, 13]\nclass = M", fillcolor="#ceb2f5"] ;
606 -> 607 ;
608 [label="Viscera Weight <= 3.82\ngini = 0.58\nsamples = 10\nvalue = [1, 5, 4]\nclass = I", fillcolor="#defbea"] ;
607 -> 608 ;
609 [label="Weight <= 14.21\ngini = 0.571\nsamples = 7\nvalue = [1, 2, 4]\nclass = M", fillcolor="#cdb0f5"] ;
608 -> 609 ;
610 [label="Weight <= 13.927\ngini = 0.444\nsamples = 3\nvalue = [1, 2, 0]\nclass = I", fillcolor="#9cf2c0"] ;
609 -> 610 ;
611 [label="gini = 0.0\nsamples = 2\nvalue = [0, 2, 0]\nclass = I", fillcolor="#39e581"] ;
610 -> 611 ;
612 [label="gini = 0.0\nsamples = 1\nvalue = [1, 0, 0]\nclass = F", fillcolor="#e58139"] ;
610 -> 612 ;
613 [label="gini = 0.0\nsamples = 4\nvalue = [0, 0, 4]\nclass = M", fillcolor="#8139e5"] ;
609 -> 613 ;
614 [label="gini = 0.0\nsamples = 3\nvalue = [0, 3, 0]\nclass = I", fillcolor="#39e581"] ;
608 -> 614 ;
615 [label="Length <= 1.244\ngini = 0.459\nsamples = 14\nvalue = [5, 0, 9]\nclass = M", fillcolor="#c7a7f3"] ;
607 -> 615 ;
616 [label="Viscera Weight <= 3.53\ngini = 0.32\nsamples = 5\nvalue = [4, 0, 1]\nclass = F", fillcolor="#eca06a"] ;
615 -> 616 ;
617 [label="gini = 0.0\nsamples = 1\nvalue = [0, 0, 1]\nclass = M", fillcolor="#8139e5"] ;
616 -> 617 ;
618 [label="gini = 0.0\nsamples = 4\nvalue = [4, 0, 0]\nclass = F", fillcolor="#e58139"] ;
616 -> 618 ;
619 [label="Viscera Weight <= 3.962\ngini = 0.198\nsamples = 9\nvalue = [1, 0, 8]\nclass = M", fillcolor="#9152e8"] ;
615 -> 619 ;
620 [label="gini = 0.0\nsamples = 6\nvalue = [0, 0, 6]\nclass = M", fillcolor="#8139e5"] ;
619 -> 620 ;
621 [label="Weight <= 19.143\ngini = 0.444\nsamples = 3\nvalue = [1, 0, 2]\nclass = M", fillcolor="#c09cf2"] ;
619 -> 621 ;
622 [label="gini = 0.0\nsamples = 1\nvalue = [1, 0, 0]\nclass = F", fillcolor="#e58139"] ;
621 -> 622 ;
623 [label="gini = 0.0\nsamples = 2\nvalue = [0, 0, 2]\nclass = M", fillcolor="#8139e5"] ;
621 -> 623 ;
624 [label="Weight <= 20.546\ngini = 0.562\nsamples = 34\nvalue = [9, 20, 5]\nclass = I", fillcolor="#a8f4c8"] ;
606 -> 624 ;
625 [label="Height <= 0.344\ngini = 0.504\nsamples = 30\nvalue = [9, 19, 2]\nclass = I", fillcolor="#a1f3c3"] ;
624 -> 625 ;
626 [label="Shell Weight <= 5.535\ngini = 0.571\nsamples = 21\nvalue = [8, 11, 2]\nclass = I", fillcolor="#d1f9e2"] ;
625 -> 626 ;
627 [label="Shucked Weight <= 8.214\ngini = 0.462\nsamples = 13\nvalue = [3, 9, 1]\nclass = I", fillcolor="#88efb3"] ;
626 -> 627 ;
628 [label="Viscera Weight <= 3.615\ngini = 0.612\nsamples = 7\nvalue = [3, 3, 1]\nclass = F", fillcolor="#ffffff"] ;
627 -> 628 ;
629 [label="gini = 0.0\nsamples = 2\nvalue = [0, 2, 0]\nclass = I", fillcolor="#39e581"] ;
628 -> 629 ;
630 [label="Weight <= 17.314\ngini = 0.56\nsamples = 5\nvalue = [3, 1, 1]\nclass = F", fillcolor="#f2c09c"] ;
628 -> 630 ;
631 [label="Height <= 0.312\ngini = 0.375\nsamples = 4\nvalue = [3, 1, 0]\nclass = F", fillcolor="#eeab7b"] ;
630 -> 631 ;
632 [label="Length <= 1.306\ngini = 0.5\nsamples = 2\nvalue = [1, 1, 0]\nclass = F", fillcolor="#ffffff"] ;
631 -> 632 ;
633 [label="gini = 0.0\nsamples = 1\nvalue = [0, 1, 0]\nclass = I", fillcolor="#39e581"] ;
632 -> 633 ;
634 [label="gini = 0.0\nsamples = 1\nvalue = [1, 0, 0]\nclass = F", fillcolor="#e58139"] ;
632 -> 634 ;
635 [label="gini = 0.0\nsamples = 2\nvalue = [2, 0, 0]\nclass = F", fillcolor="#e58139"] ;
631 -> 635 ;
636 [label="gini = 0.0\nsamples = 1\nvalue = [0, 0, 1]\nclass = M", fillcolor="#8139e5"] ;
630 -> 636 ;
637 [label="gini = 0.0\nsamples = 6\nvalue = [0, 6, 0]\nclass = I", fillcolor="#39e581"] ;
627 -> 637 ;
638 [label="Diameter <= 1.056\ngini = 0.531\nsamples = 8\nvalue = [5, 2, 1]\nclass = F", fillcolor="#f2c09c"] ;
626 -> 638 ;
639 [label="gini = 0.0\nsamples = 5\nvalue = [5, 0, 0]\nclass = F", fillcolor="#e58139"] ;
638 -> 639 ;
640 [label="Diameter <= 1.069\ngini = 0.444\nsamples = 3\nvalue = [0, 2, 1]\nclass = I", fillcolor="#9cf2c0"] ;
638 -> 640 ;
641 [label="gini = 0.0\nsamples = 1\nvalue = [0, 0, 1]\nclass = M", fillcolor="#8139e5"] ;
640 -> 641 ;
642 [label="gini = 0.0\nsamples = 2\nvalue = [0, 2, 0]\nclass = I", fillcolor="#39e581"] ;
640 -> 642 ;
643 [label="Height <= 0.438\ngini = 0.198\nsamples = 9\nvalue = [1, 8, 0]\nclass = I", fillcolor="#52e891"] ;
625 -> 643 ;
644 [label="gini = 0.0\nsamples = 8\nvalue = [0, 8, 0]\nclass = I", fillcolor="#39e581"] ;
643 -> 644 ;
645 [label="gini = 0.0\nsamples = 1\nvalue = [1, 0, 0]\nclass = F", fillcolor="#e58139"] ;
643 -> 645 ;
646 [label="Height <= 0.362\ngini = 0.375\nsamples = 4\nvalue = [0, 1, 3]\nclass = M", fillcolor="#ab7bee"] ;
624 -> 646 ;
647 [label="Shell Weight <= 6.634\ngini = 0.5\nsamples = 2\nvalue = [0, 1, 1]\nclass = I", fillcolor="#ffffff"] ;
646 -> 647 ;
648 [label="gini = 0.0\nsamples = 1\nvalue = [0, 0, 1]\nclass = M", fillcolor="#8139e5"] ;
647 -> 648 ;
649 [label="gini = 0.0\nsamples = 1\nvalue = [0, 1, 0]\nclass = I", fillcolor="#39e581"] ;
647 -> 649 ;
650 [label="gini = 0.0\nsamples = 2\nvalue = [0, 0, 2]\nclass = M", fillcolor="#8139e5"] ;
646 -> 650 ;
651 [label="Shell Weight <= 1.97\ngini = 0.659\nsamples = 353\nvalue = [135, 94, 124]\nclass = F", fillcolor="#fef9f5"] ;
499 -> 651 ;
652 [label="Viscera Weight <= 1.006\ngini = 0.291\nsamples = 17\nvalue = [0, 3, 14]\nclass = M", fillcolor="#9c63eb"] ;
651 -> 652 ;
653 [label="Diameter <= 0.6\ngini = 0.5\nsamples = 6\nvalue = [0, 3, 3]\nclass = I", fillcolor="#ffffff"] ;
652 -> 653 ;
654 [label="gini = 0.0\nsamples = 3\nvalue = [0, 0, 3]\nclass = M", fillcolor="#8139e5"] ;
653 -> 654 ;
655 [label="gini = 0.0\nsamples = 3\nvalue = [0, 3, 0]\nclass = I", fillcolor="#39e581"] ;
653 -> 655 ;
656 [label="gini = 0.0\nsamples = 11\nvalue = [0, 0, 11]\nclass = M", fillcolor="#8139e5"] ;
652 -> 656 ;
657 [label="Length <= 1.281\ngini = 0.658\nsamples = 336\nvalue = [135, 91, 110]\nclass = F", fillcolor="#fcf1e9"] ;
651 -> 657 ;
658 [label="Weight <= 15.032\ngini = 0.648\nsamples = 275\nvalue = [117, 64, 94]\nclass = F", fillcolor="#fcefe6"] ;
657 -> 658 ;
659 [label="Shell Weight <= 4.026\ngini = 0.665\nsamples = 183\nvalue = [67, 58, 58]\nclass = F", fillcolor="#fdf6f1"] ;
658 -> 659 ;
660 [label="Shucked Weight <= 4.061\ngini = 0.649\nsamples = 105\nvalue = [46, 32, 27]\nclass = F", fillcolor="#fae7d9"] ;
659 -> 660 ;
661 [label="Height <= 0.306\ngini = 0.665\nsamples = 58\nvalue = [18, 19, 21]\nclass = M", fillcolor="#f9f5fe"] ;
660 -> 661 ;
662 [label="Age <= 10.5\ngini = 0.666\nsamples = 54\nvalue = [18, 19, 17]\nclass = I", fillcolor="#fafefc"] ;
661 -> 662 ;
663 [label="Height <= 0.244\ngini = 0.614\nsamples = 25\nvalue = [12, 9, 4]\nclass = F", fillcolor="#fae7da"] ;
662 -> 663 ;
664 [label="Viscera Weight <= 1.864\ngini = 0.469\nsamples = 8\nvalue = [5, 0, 3]\nclass = F", fillcolor="#f5cdb0"] ;
663 -> 664 ;
665 [label="Length <= 0.856\ngini = 0.278\nsamples = 6\nvalue = [5, 0, 1]\nclass = F", fillcolor="#ea9a61"] ;
664 -> 665 ;
666 [label="gini = 0.0\nsamples = 1\nvalue = [0, 0, 1]\nclass = M", fillcolor="#8139e5"] ;
665 -> 666 ;
667 [label="gini = 0.0\nsamples = 5\nvalue = [5, 0, 0]\nclass = F", fillcolor="#e58139"] ;
665 -> 667 ;
668 [label="gini = 0.0\nsamples = 2\nvalue = [0, 0, 2]\nclass = M", fillcolor="#8139e5"] ;
664 -> 668 ;
669 [label="Height <= 0.256\ngini = 0.547\nsamples = 17\nvalue = [7, 9, 1]\nclass = I", fillcolor="#d7fae6"] ;
663 -> 669 ;
670 [label="gini = 0.0\nsamples = 5\nvalue = [0, 5, 0]\nclass = I", fillcolor="#39e581"] ;
669 -> 670 ;
671 [label="Shell Weight <= 3.09\ngini = 0.542\nsamples = 12\nvalue = [7, 4, 1]\nclass = F", fillcolor="#f5d0b5"] ;
669 -> 671 ;
672 [label="Viscera Weight <= 1.708\ngini = 0.463\nsamples = 11\nvalue = [7, 4, 0]\nclass = F", fillcolor="#f4c9aa"] ;
671 -> 672 ;
673 [label="Viscera Weight <= 1.453\ngini = 0.48\nsamples = 5\nvalue = [2, 3, 0]\nclass = I", fillcolor="#bdf6d5"] ;
672 -> 673 ;
674 [label="gini = 0.0\nsamples = 2\nvalue = [2, 0, 0]\nclass = F", fillcolor="#e58139"] ;
673 -> 674 ;
675 [label="gini = 0.0\nsamples = 3\nvalue = [0, 3, 0]\nclass = I", fillcolor="#39e581"] ;
673 -> 675 ;
676 [label="Diameter <= 0.881\ngini = 0.278\nsamples = 6\nvalue = [5, 1, 0]\nclass = F", fillcolor="#ea9a61"] ;
672 -> 676 ;
677 [label="gini = 0.0\nsamples = 5\nvalue = [5, 0, 0]\nclass = F", fillcolor="#e58139"] ;
676 -> 677 ;
678 [label="gini = 0.0\nsamples = 1\nvalue = [0, 1, 0]\nclass = I", fillcolor="#39e581"] ;
676 -> 678 ;
679 [label="gini = 0.0\nsamples = 1\nvalue = [0, 0, 1]\nclass = M", fillcolor="#8139e5"] ;
671 -> 679 ;
680 [label="Weight <= 9.724\ngini = 0.637\nsamples = 29\nvalue = [6, 10, 13]\nclass = M", fillcolor="#ebe0fb"] ;
662 -> 680 ;
681 [label="Shell Weight <= 2.091\ngini = 0.54\nsamples = 21\nvalue = [3, 5, 13]\nclass = M", fillcolor="#c09cf2"] ;
680 -> 681 ;
682 [label="gini = 0.0\nsamples = 2\nvalue = [0, 2, 0]\nclass = I", fillcolor="#39e581"] ;
681 -> 682 ;
683 [label="Viscera Weight <= 1.588\ngini = 0.482\nsamples = 19\nvalue = [3, 3, 13]\nclass = M", fillcolor="#b083ef"] ;
681 -> 683 ;
684 [label="Shell Weight <= 2.381\ngini = 0.5\nsamples = 6\nvalue = [0, 3, 3]\nclass = I", fillcolor="#ffffff"] ;
683 -> 684 ;
685 [label="gini = 0.0\nsamples = 2\nvalue = [0, 0, 2]\nclass = M", fillcolor="#8139e5"] ;
684 -> 685 ;
686 [label="Shell Weight <= 3.203\ngini = 0.375\nsamples = 4\nvalue = [0, 3, 1]\nclass = I", fillcolor="#7beeab"] ;
684 -> 686 ;
687 [label="gini = 0.0\nsamples = 3\nvalue = [0, 3, 0]\nclass = I", fillcolor="#39e581"] ;
686 -> 687 ;
688 [label="gini = 0.0\nsamples = 1\nvalue = [0, 0, 1]\nclass = M", fillcolor="#8139e5"] ;
686 -> 688 ;
689 [label="Height <= 0.294\ngini = 0.355\nsamples = 13\nvalue = [3, 0, 10]\nclass = M", fillcolor="#a774ed"] ;
683 -> 689 ;
690 [label="Weight <= 8.016\ngini = 0.278\nsamples = 12\nvalue = [2, 0, 10]\nclass = M", fillcolor="#9a61ea"] ;
689 -> 690 ;
691 [label="Diameter <= 0.731\ngini = 0.48\nsamples = 5\nvalue = [2, 0, 3]\nclass = M", fillcolor="#d5bdf6"] ;
690 -> 691 ;
692 [label="gini = 0.0\nsamples = 3\nvalue = [0, 0, 3]\nclass = M", fillcolor="#8139e5"] ;
691 -> 692 ;
693 [label="gini = 0.0\nsamples = 2\nvalue = [2, 0, 0]\nclass = F", fillcolor="#e58139"] ;
691 -> 693 ;
694 [label="gini = 0.0\nsamples = 7\nvalue = [0, 0, 7]\nclass = M", fillcolor="#8139e5"] ;
690 -> 694 ;
695 [label="gini = 0.0\nsamples = 1\nvalue = [1, 0, 0]\nclass = F", fillcolor="#e58139"] ;
689 -> 695 ;
696 [label="Length <= 1.094\ngini = 0.469\nsamples = 8\nvalue = [3, 5, 0]\nclass = I", fillcolor="#b0f5cd"] ;
680 -> 696 ;
697 [label="Weight <= 10.404\ngini = 0.375\nsamples = 4\nvalue = [3, 1, 0]\nclass = F", fillcolor="#eeab7b"] ;
696 -> 697 ;
698 [label="gini = 0.0\nsamples = 2\nvalue = [2, 0, 0]\nclass = F", fillcolor="#e58139"] ;
697 -> 698 ;
699 [label="Viscera Weight <= 2.75\ngini = 0.5\nsamples = 2\nvalue = [1, 1, 0]\nclass = F", fillcolor="#ffffff"] ;
697 -> 699 ;
700 [label="gini = 0.0\nsamples = 1\nvalue = [0, 1, 0]\nclass = I", fillcolor="#39e581"] ;
699 -> 700 ;
701 [label="gini = 0.0\nsamples = 1\nvalue = [1, 0, 0]\nclass = F", fillcolor="#e58139"] ;
699 -> 701 ;
702 [label="gini = 0.0\nsamples = 4\nvalue = [0, 4, 0]\nclass = I", fillcolor="#39e581"] ;
696 -> 702 ;
703 [label="gini = 0.0\nsamples = 4\nvalue = [0, 0, 4]\nclass = M", fillcolor="#8139e5"] ;
661 -> 703 ;
704 [label="Age <= 13.5\ngini = 0.552\nsamples = 47\nvalue = [28, 13, 6]\nclass = F", fillcolor="#f4c7a8"] ;
660 -> 704 ;
705 [label="Viscera Weight <= 2.105\ngini = 0.503\nsamples = 41\nvalue = [27, 9, 5]\nclass = F", fillcolor="#f0b890"] ;
704 -> 705 ;
706 [label="Shucked Weight <= 4.267\ngini = 0.5\nsamples = 10\nvalue = [5, 5, 0]\nclass = F", fillcolor="#ffffff"] ;
705 -> 706 ;
707 [label="gini = 0.0\nsamples = 3\nvalue = [3, 0, 0]\nclass = F", fillcolor="#e58139"] ;
706 -> 707 ;
708 [label="Age <= 12.5\ngini = 0.408\nsamples = 7\nvalue = [2, 5, 0]\nclass = I", fillcolor="#88efb3"] ;
706 -> 708 ;
709 [label="Shucked Weight <= 4.848\ngini = 0.278\nsamples = 6\nvalue = [1, 5, 0]\nclass = I", fillcolor="#61ea9a"] ;
708 -> 709 ;
710 [label="gini = 0.0\nsamples = 5\nvalue = [0, 5, 0]\nclass = I", fillcolor="#39e581"] ;
709 -> 710 ;
711 [label="gini = 0.0\nsamples = 1\nvalue = [1, 0, 0]\nclass = F", fillcolor="#e58139"] ;
709 -> 711 ;
712 [label="gini = 0.0\nsamples = 1\nvalue = [1, 0, 0]\nclass = F", fillcolor="#e58139"] ;
708 -> 712 ;
713 [label="Length <= 1.194\ngini = 0.454\nsamples = 31\nvalue = [22, 4, 5]\nclass = F", fillcolor="#eead7e"] ;
705 -> 713 ;
714 [label="Weight <= 12.53\ngini = 0.424\nsamples = 30\nvalue = [22, 3, 5]\nclass = F", fillcolor="#eda978"] ;
713 -> 714 ;
715 [label="Shucked Weight <= 4.713\ngini = 0.521\nsamples = 19\nvalue = [12, 2, 5]\nclass = F", fillcolor="#f2c09c"] ;
714 -> 715 ;
716 [label="Height <= 0.294\ngini = 0.26\nsamples = 13\nvalue = [11, 0, 2]\nclass = F", fillcolor="#ea985d"] ;
715 -> 716 ;
717 [label="gini = 0.0\nsamples = 7\nvalue = [7, 0, 0]\nclass = F", fillcolor="#e58139"] ;
716 -> 717 ;
718 [label="Height <= 0.312\ngini = 0.444\nsamples = 6\nvalue = [4, 0, 2]\nclass = F", fillcolor="#f2c09c"] ;
716 -> 718 ;
719 [label="Length <= 1.075\ngini = 0.444\nsamples = 3\nvalue = [1, 0, 2]\nclass = M", fillcolor="#c09cf2"] ;
718 -> 719 ;
720 [label="gini = 0.0\nsamples = 2\nvalue = [0, 0, 2]\nclass = M", fillcolor="#8139e5"] ;
719 -> 720 ;
721 [label="gini = 0.0\nsamples = 1\nvalue = [1, 0, 0]\nclass = F", fillcolor="#e58139"] ;
719 -> 721 ;
722 [label="gini = 0.0\nsamples = 3\nvalue = [3, 0, 0]\nclass = F", fillcolor="#e58139"] ;
718 -> 722 ;
723 [label="Shell Weight <= 3.615\ngini = 0.611\nsamples = 6\nvalue = [1, 2, 3]\nclass = M", fillcolor="#e0cef8"] ;
715 -> 723 ;
724 [label="Age <= 10.5\ngini = 0.444\nsamples = 3\nvalue = [1, 2, 0]\nclass = I", fillcolor="#9cf2c0"] ;
723 -> 724 ;
725 [label="gini = 0.0\nsamples = 1\nvalue = [1, 0, 0]\nclass = F", fillcolor="#e58139"] ;
724 -> 725 ;
726 [label="gini = 0.0\nsamples = 2\nvalue = [0, 2, 0]\nclass = I", fillcolor="#39e581"] ;
724 -> 726 ;
727 [label="gini = 0.0\nsamples = 3\nvalue = [0, 0, 3]\nclass = M", fillcolor="#8139e5"] ;
723 -> 727 ;
728 [label="Shell Weight <= 3.331\ngini = 0.165\nsamples = 11\nvalue = [10, 1, 0]\nclass = F", fillcolor="#e88e4d"] ;
714 -> 728 ;
729 [label="gini = 0.0\nsamples = 1\nvalue = [0, 1, 0]\nclass = I", fillcolor="#39e581"] ;
728 -> 729 ;
730 [label="gini = 0.0\nsamples = 10\nvalue = [10, 0, 0]\nclass = F", fillcolor="#e58139"] ;
728 -> 730 ;
731 [label="gini = 0.0\nsamples = 1\nvalue = [0, 1, 0]\nclass = I", fillcolor="#39e581"] ;
713 -> 731 ;
732 [label="Shucked Weight <= 4.5\ngini = 0.5\nsamples = 6\nvalue = [1, 4, 1]\nclass = I", fillcolor="#88efb3"] ;
704 -> 732 ;
733 [label="gini = 0.0\nsamples = 1\nvalue = [1, 0, 0]\nclass = F", fillcolor="#e58139"] ;
732 -> 733 ;
734 [label="Shell Weight <= 3.203\ngini = 0.32\nsamples = 5\nvalue = [0, 4, 1]\nclass = I", fillcolor="#6aeca0"] ;
732 -> 734 ;
735 [label="gini = 0.0\nsamples = 1\nvalue = [0, 0, 1]\nclass = M", fillcolor="#8139e5"] ;
734 -> 735 ;
736 [label="gini = 0.0\nsamples = 4\nvalue = [0, 4, 0]\nclass = I", fillcolor="#39e581"] ;
734 -> 736 ;
737 [label="Viscera Weight <= 3.083\ngini = 0.658\nsamples = 78\nvalue = [21, 26, 31]\nclass = M", fillcolor="#f3ecfc"] ;
659 -> 737 ;
738 [label="Weight <= 14.699\ngini = 0.64\nsamples = 52\nvalue = [11, 23, 18]\nclass = I", fillcolor="#e2fbec"] ;
737 -> 738 ;
739 [label="Shell Weight <= 5.571\ngini = 0.65\nsamples = 48\nvalue = [11, 19, 18]\nclass = I", fillcolor="#f8fefb"] ;
738 -> 739 ;
740 [label="Height <= 0.331\ngini = 0.654\nsamples = 45\nvalue = [11, 16, 18]\nclass = M", fillcolor="#f6f1fd"] ;
739 -> 740 ;
741 [label="Viscera Weight <= 2.53\ngini = 0.649\nsamples = 37\nvalue = [9, 16, 12]\nclass = I", fillcolor="#dffbeb"] ;
740 -> 741 ;
742 [label="Shell Weight <= 4.678\ngini = 0.449\nsamples = 14\nvalue = [2, 10, 2]\nclass = I", fillcolor="#7beeab"] ;
741 -> 742 ;
743 [label="gini = 0.0\nsamples = 8\nvalue = [0, 8, 0]\nclass = I", fillcolor="#39e581"] ;
742 -> 743 ;
744 [label="Weight <= 12.552\ngini = 0.667\nsamples = 6\nvalue = [2, 2, 2]\nclass = F", fillcolor="#ffffff"] ;
742 -> 744 ;
745 [label="gini = 0.0\nsamples = 2\nvalue = [0, 2, 0]\nclass = I", fillcolor="#39e581"] ;
744 -> 745 ;
746 [label="Shucked Weight <= 5.039\ngini = 0.5\nsamples = 4\nvalue = [2, 0, 2]\nclass = F", fillcolor="#ffffff"] ;
744 -> 746 ;
747 [label="gini = 0.0\nsamples = 2\nvalue = [2, 0, 0]\nclass = F", fillcolor="#e58139"] ;
746 -> 747 ;
748 [label="gini = 0.0\nsamples = 2\nvalue = [0, 0, 2]\nclass = M", fillcolor="#8139e5"] ;
746 -> 748 ;
749 [label="Weight <= 12.545\ngini = 0.65\nsamples = 23\nvalue = [7, 6, 10]\nclass = M", fillcolor="#e7dafa"] ;
741 -> 749 ;
750 [label="gini = 0.0\nsamples = 4\nvalue = [0, 0, 4]\nclass = M", fillcolor="#8139e5"] ;
749 -> 750 ;
751 [label="Diameter <= 0.906\ngini = 0.665\nsamples = 19\nvalue = [7, 6, 6]\nclass = F", fillcolor="#fdf5f0"] ;
749 -> 751 ;
752 [label="Viscera Weight <= 3.048\ngini = 0.542\nsamples = 12\nvalue = [7, 4, 1]\nclass = F", fillcolor="#f5d0b5"] ;
751 -> 752 ;
753 [label="Weight <= 13.927\ngini = 0.346\nsamples = 9\nvalue = [7, 2, 0]\nclass = F", fillcolor="#eca572"] ;
752 -> 753 ;
754 [label="Weight <= 13.012\ngini = 0.48\nsamples = 5\nvalue = [3, 2, 0]\nclass = F", fillcolor="#f6d5bd"] ;
753 -> 754 ;
755 [label="gini = 0.0\nsamples = 2\nvalue = [2, 0, 0]\nclass = F", fillcolor="#e58139"] ;
754 -> 755 ;
756 [label="Viscera Weight <= 2.984\ngini = 0.444\nsamples = 3\nvalue = [1, 2, 0]\nclass = I", fillcolor="#9cf2c0"] ;
754 -> 756 ;
757 [label="gini = 0.0\nsamples = 2\nvalue = [0, 2, 0]\nclass = I", fillcolor="#39e581"] ;
756 -> 757 ;
758 [label="gini = 0.0\nsamples = 1\nvalue = [1, 0, 0]\nclass = F", fillcolor="#e58139"] ;
756 -> 758 ;
759 [label="gini = 0.0\nsamples = 4\nvalue = [4, 0, 0]\nclass = F", fillcolor="#e58139"] ;
753 -> 759 ;
760 [label="Age <= 10.5\ngini = 0.444\nsamples = 3\nvalue = [0, 2, 1]\nclass = I", fillcolor="#9cf2c0"] ;
752 -> 760 ;
761 [label="gini = 0.0\nsamples = 1\nvalue = [0, 0, 1]\nclass = M", fillcolor="#8139e5"] ;
760 -> 761 ;
762 [label="gini = 0.0\nsamples = 2\nvalue = [0, 2, 0]\nclass = I", fillcolor="#39e581"] ;
760 -> 762 ;
763 [label="Shucked Weight <= 5.301\ngini = 0.408\nsamples = 7\nvalue = [0, 2, 5]\nclass = M", fillcolor="#b388ef"] ;
751 -> 763 ;
764 [label="gini = 0.0\nsamples = 2\nvalue = [0, 2, 0]\nclass = I", fillcolor="#39e581"] ;
763 -> 764 ;
765 [label="gini = 0.0\nsamples = 5\nvalue = [0, 0, 5]\nclass = M", fillcolor="#8139e5"] ;
763 -> 765 ;
766 [label="Shucked Weight <= 4.337\ngini = 0.375\nsamples = 8\nvalue = [2, 0, 6]\nclass = M", fillcolor="#ab7bee"] ;
740 -> 766 ;
767 [label="Shell Weight <= 4.245\ngini = 0.444\nsamples = 3\nvalue = [2, 0, 1]\nclass = F", fillcolor="#f2c09c"] ;
766 -> 767 ;
768 [label="gini = 0.0\nsamples = 1\nvalue = [0, 0, 1]\nclass = M", fillcolor="#8139e5"] ;
767 -> 768 ;
769 [label="gini = 0.0\nsamples = 2\nvalue = [2, 0, 0]\nclass = F", fillcolor="#e58139"] ;
767 -> 769 ;
770 [label="gini = 0.0\nsamples = 5\nvalue = [0, 0, 5]\nclass = M", fillcolor="#8139e5"] ;
766 -> 770 ;
771 [label="gini = 0.0\nsamples = 3\nvalue = [0, 3, 0]\nclass = I", fillcolor="#39e581"] ;
739 -> 771 ;
772 [label="gini = 0.0\nsamples = 4\nvalue = [0, 4, 0]\nclass = I", fillcolor="#39e581"] ;
738 -> 772 ;
773 [label="Shucked Weight <= 5.557\ngini = 0.589\nsamples = 26\nvalue = [10, 3, 13]\nclass = M", fillcolor="#e7dafa"] ;
737 -> 773 ;
774 [label="Length <= 1.156\ngini = 0.459\nsamples = 14\nvalue = [9, 0, 5]\nclass = F", fillcolor="#f3c7a7"] ;
773 -> 774 ;
775 [label="Length <= 1.119\ngini = 0.444\nsamples = 6\nvalue = [2, 0, 4]\nclass = M", fillcolor="#c09cf2"] ;
774 -> 775 ;
776 [label="gini = 0.0\nsamples = 2\nvalue = [2, 0, 0]\nclass = F", fillcolor="#e58139"] ;
775 -> 776 ;
777 [label="gini = 0.0\nsamples = 4\nvalue = [0, 0, 4]\nclass = M", fillcolor="#8139e5"] ;
775 -> 777 ;
778 [label="Shucked Weight <= 4.904\ngini = 0.219\nsamples = 8\nvalue = [7, 0, 1]\nclass = F", fillcolor="#e99355"] ;
774 -> 778 ;
779 [label="gini = 0.0\nsamples = 1\nvalue = [0, 0, 1]\nclass = M", fillcolor="#8139e5"] ;
778 -> 779 ;
780 [label="gini = 0.0\nsamples = 7\nvalue = [7, 0, 0]\nclass = F", fillcolor="#e58139"] ;
778 -> 780 ;
781 [label="Height <= 0.306\ngini = 0.486\nsamples = 12\nvalue = [1, 3, 8]\nclass = M", fillcolor="#b991f1"] ;
773 -> 781 ;
782 [label="Height <= 0.281\ngini = 0.444\nsamples = 3\nvalue = [1, 2, 0]\nclass = I", fillcolor="#9cf2c0"] ;
781 -> 782 ;
783 [label="gini = 0.0\nsamples = 1\nvalue = [1, 0, 0]\nclass = F", fillcolor="#e58139"] ;
782 -> 783 ;
784 [label="gini = 0.0\nsamples = 2\nvalue = [0, 2, 0]\nclass = I", fillcolor="#39e581"] ;
782 -> 784 ;
785 [label="Height <= 0.344\ngini = 0.198\nsamples = 9\nvalue = [0, 1, 8]\nclass = M", fillcolor="#9152e8"] ;
781 -> 785 ;
786 [label="gini = 0.0\nsamples = 7\nvalue = [0, 0, 7]\nclass = M", fillcolor="#8139e5"] ;
785 -> 786 ;
787 [label="Shell Weight <= 4.522\ngini = 0.5\nsamples = 2\nvalue = [0, 1, 1]\nclass = I", fillcolor="#ffffff"] ;
785 -> 787 ;
788 [label="gini = 0.0\nsamples = 1\nvalue = [0, 1, 0]\nclass = I", fillcolor="#39e581"] ;
787 -> 788 ;
789 [label="gini = 0.0\nsamples = 1\nvalue = [0, 0, 1]\nclass = M", fillcolor="#8139e5"] ;
787 -> 789 ;
790 [label="Weight <= 15.344\ngini = 0.547\nsamples = 92\nvalue = [50, 6, 36]\nclass = F", fillcolor="#f8e0ce"] ;
658 -> 790 ;
791 [label="gini = 0.0\nsamples = 6\nvalue = [6, 0, 0]\nclass = F", fillcolor="#e58139"] ;
790 -> 791 ;
792 [label="Diameter <= 1.031\ngini = 0.558\nsamples = 86\nvalue = [44, 6, 36]\nclass = F", fillcolor="#fbebdf"] ;
790 -> 792 ;
793 [label="Shucked Weight <= 6.542\ngini = 0.556\nsamples = 83\nvalue = [44, 6, 33]\nclass = F", fillcolor="#f9e3d3"] ;
792 -> 793 ;
794 [label="Shucked Weight <= 6.116\ngini = 0.569\nsamples = 36\nvalue = [15, 3, 18]\nclass = M", fillcolor="#ede3fb"] ;
793 -> 794 ;
795 [label="Shell Weight <= 5.953\ngini = 0.499\nsamples = 19\nvalue = [12, 1, 6]\nclass = F", fillcolor="#f3c5a4"] ;
794 -> 795 ;
796 [label="Viscera Weight <= 3.99\ngini = 0.314\nsamples = 11\nvalue = [9, 1, 1]\nclass = F", fillcolor="#ea9a61"] ;
795 -> 796 ;
797 [label="Diameter <= 0.956\ngini = 0.18\nsamples = 10\nvalue = [9, 1, 0]\nclass = F", fillcolor="#e88f4f"] ;
796 -> 797 ;
798 [label="gini = 0.0\nsamples = 8\nvalue = [8, 0, 0]\nclass = F", fillcolor="#e58139"] ;
797 -> 798 ;
799 [label="Shucked Weight <= 5.854\ngini = 0.5\nsamples = 2\nvalue = [1, 1, 0]\nclass = F", fillcolor="#ffffff"] ;
797 -> 799 ;
800 [label="gini = 0.0\nsamples = 1\nvalue = [0, 1, 0]\nclass = I", fillcolor="#39e581"] ;
799 -> 800 ;
801 [label="gini = 0.0\nsamples = 1\nvalue = [1, 0, 0]\nclass = F", fillcolor="#e58139"] ;
799 -> 801 ;
802 [label="gini = 0.0\nsamples = 1\nvalue = [0, 0, 1]\nclass = M", fillcolor="#8139e5"] ;
796 -> 802 ;
803 [label="Diameter <= 0.994\ngini = 0.469\nsamples = 8\nvalue = [3, 0, 5]\nclass = M", fillcolor="#cdb0f5"] ;
795 -> 803 ;
804 [label="Weight <= 16.421\ngini = 0.408\nsamples = 7\nvalue = [2, 0, 5]\nclass = M", fillcolor="#b388ef"] ;
803 -> 804 ;
805 [label="Weight <= 15.734\ngini = 0.444\nsamples = 3\nvalue = [2, 0, 1]\nclass = F", fillcolor="#f2c09c"] ;
804 -> 805 ;
806 [label="gini = 0.0\nsamples = 1\nvalue = [0, 0, 1]\nclass = M", fillcolor="#8139e5"] ;
805 -> 806 ;
807 [label="gini = 0.0\nsamples = 2\nvalue = [2, 0, 0]\nclass = F", fillcolor="#e58139"] ;
805 -> 807 ;
808 [label="gini = 0.0\nsamples = 4\nvalue = [0, 0, 4]\nclass = M", fillcolor="#8139e5"] ;
804 -> 808 ;
809 [label="gini = 0.0\nsamples = 1\nvalue = [1, 0, 0]\nclass = F", fillcolor="#e58139"] ;
803 -> 809 ;
810 [label="Diameter <= 1.006\ngini = 0.457\nsamples = 17\nvalue = [3, 2, 12]\nclass = M", fillcolor="#ae80ee"] ;
794 -> 810 ;
811 [label="Length <= 1.262\ngini = 0.32\nsamples = 15\nvalue = [3, 0, 12]\nclass = M", fillcolor="#a06aec"] ;
810 -> 811 ;
812 [label="Length <= 1.169\ngini = 0.153\nsamples = 12\nvalue = [1, 0, 11]\nclass = M", fillcolor="#8c4be7"] ;
811 -> 812 ;
813 [label="gini = 0.0\nsamples = 1\nvalue = [1, 0, 0]\nclass = F", fillcolor="#e58139"] ;
812 -> 813 ;
814 [label="gini = 0.0\nsamples = 11\nvalue = [0, 0, 11]\nclass = M", fillcolor="#8139e5"] ;
812 -> 814 ;
815 [label="Shell Weight <= 6.166\ngini = 0.444\nsamples = 3\nvalue = [2, 0, 1]\nclass = F", fillcolor="#f2c09c"] ;
811 -> 815 ;
816 [label="gini = 0.0\nsamples = 2\nvalue = [2, 0, 0]\nclass = F", fillcolor="#e58139"] ;
815 -> 816 ;
817 [label="gini = 0.0\nsamples = 1\nvalue = [0, 0, 1]\nclass = M", fillcolor="#8139e5"] ;
815 -> 817 ;
818 [label="gini = 0.0\nsamples = 2\nvalue = [0, 2, 0]\nclass = I", fillcolor="#39e581"] ;
810 -> 818 ;
819 [label="Shucked Weight <= 7.151\ngini = 0.513\nsamples = 47\nvalue = [29, 3, 15]\nclass = F", fillcolor="#f4c8a8"] ;
793 -> 819 ;
820 [label="Shell Weight <= 7.017\ngini = 0.376\nsamples = 22\nvalue = [17, 2, 3]\nclass = F", fillcolor="#eca26d"] ;
819 -> 820 ;
821 [label="Viscera Weight <= 2.885\ngini = 0.322\nsamples = 21\nvalue = [17, 1, 3]\nclass = F", fillcolor="#eb9d65"] ;
820 -> 821 ;
822 [label="gini = 0.0\nsamples = 1\nvalue = [0, 0, 1]\nclass = M", fillcolor="#8139e5"] ;
821 -> 822 ;
823 [label="Length <= 1.269\ngini = 0.265\nsamples = 20\nvalue = [17, 1, 2]\nclass = F", fillcolor="#e9965a"] ;
821 -> 823 ;
824 [label="Diameter <= 0.906\ngini = 0.194\nsamples = 19\nvalue = [17, 1, 1]\nclass = F", fillcolor="#e88f4f"] ;
823 -> 824 ;
825 [label="Diameter <= 0.881\ngini = 0.5\nsamples = 2\nvalue = [1, 1, 0]\nclass = F", fillcolor="#ffffff"] ;
824 -> 825 ;
826 [label="gini = 0.0\nsamples = 1\nvalue = [1, 0, 0]\nclass = F", fillcolor="#e58139"] ;
825 -> 826 ;
827 [label="gini = 0.0\nsamples = 1\nvalue = [0, 1, 0]\nclass = I", fillcolor="#39e581"] ;
825 -> 827 ;
828 [label="Length <= 1.194\ngini = 0.111\nsamples = 17\nvalue = [16, 0, 1]\nclass = F", fillcolor="#e78945"] ;
824 -> 828 ;
829 [label="Weight <= 16.712\ngini = 0.5\nsamples = 2\nvalue = [1, 0, 1]\nclass = F", fillcolor="#ffffff"] ;
828 -> 829 ;
830 [label="gini = 0.0\nsamples = 1\nvalue = [1, 0, 0]\nclass = F", fillcolor="#e58139"] ;
829 -> 830 ;
831 [label="gini = 0.0\nsamples = 1\nvalue = [0, 0, 1]\nclass = M", fillcolor="#8139e5"] ;
829 -> 831 ;
832 [label="gini = 0.0\nsamples = 15\nvalue = [15, 0, 0]\nclass = F", fillcolor="#e58139"] ;
828 -> 832 ;
833 [label="gini = 0.0\nsamples = 1\nvalue = [0, 0, 1]\nclass = M", fillcolor="#8139e5"] ;
823 -> 833 ;
834 [label="gini = 0.0\nsamples = 1\nvalue = [0, 1, 0]\nclass = I", fillcolor="#39e581"] ;
820 -> 834 ;
835 [label="Weight <= 18.881\ngini = 0.538\nsamples = 25\nvalue = [12, 1, 12]\nclass = F", fillcolor="#ffffff"] ;
819 -> 835 ;
836 [label="Viscera Weight <= 3.848\ngini = 0.499\nsamples = 19\nvalue = [6, 1, 12]\nclass = M", fillcolor="#c5a4f3"] ;
835 -> 836 ;
837 [label="Height <= 0.369\ngini = 0.561\nsamples = 14\nvalue = [6, 1, 7]\nclass = M", fillcolor="#efe6fc"] ;
836 -> 837 ;
838 [label="Viscera Weight <= 3.409\ngini = 0.463\nsamples = 11\nvalue = [4, 0, 7]\nclass = M", fillcolor="#c9aaf4"] ;
837 -> 838 ;
839 [label="Length <= 1.219\ngini = 0.48\nsamples = 5\nvalue = [3, 0, 2]\nclass = F", fillcolor="#f6d5bd"] ;
838 -> 839 ;
840 [label="Viscera Weight <= 2.566\ngini = 0.444\nsamples = 3\nvalue = [1, 0, 2]\nclass = M", fillcolor="#c09cf2"] ;
839 -> 840 ;
841 [label="gini = 0.0\nsamples = 1\nvalue = [1, 0, 0]\nclass = F", fillcolor="#e58139"] ;
840 -> 841 ;
842 [label="gini = 0.0\nsamples = 2\nvalue = [0, 0, 2]\nclass = M", fillcolor="#8139e5"] ;
840 -> 842 ;
843 [label="gini = 0.0\nsamples = 2\nvalue = [2, 0, 0]\nclass = F", fillcolor="#e58139"] ;
839 -> 843 ;
844 [label="Age <= 13.5\ngini = 0.278\nsamples = 6\nvalue = [1, 0, 5]\nclass = M", fillcolor="#9a61ea"] ;
838 -> 844 ;
845 [label="gini = 0.0\nsamples = 5\nvalue = [0, 0, 5]\nclass = M", fillcolor="#8139e5"] ;
844 -> 845 ;
846 [label="gini = 0.0\nsamples = 1\nvalue = [1, 0, 0]\nclass = F", fillcolor="#e58139"] ;
844 -> 846 ;
847 [label="Age <= 12.5\ngini = 0.444\nsamples = 3\nvalue = [2, 1, 0]\nclass = F", fillcolor="#f2c09c"] ;
837 -> 847 ;
848 [label="gini = 0.0\nsamples = 2\nvalue = [2, 0, 0]\nclass = F", fillcolor="#e58139"] ;
847 -> 848 ;
